{"layer1_weight": [[0.2566702961921692, 0.05498158559203148, 0.24876397848129272, -0.8324746489524841, -0.008009346202015877, 0.3635421395301819, -0.8016404509544373, -0.05154671519994736, -0.012399360537528992, 0.1441165804862976, -0.5052542686462402, -0.012483648955821991, 0.2891088128089905, -0.48031318187713623, -0.717974841594696, 0.11548439413309097, -0.8213573098182678, 0.16140709817409515, -0.5294865965843201, 0.22164739668369293, -0.3667251765727997, 0.34748682379722595, 0.11902739107608795, 0.24993151426315308, 0.29411444067955017, 0.16803134977817535, -0.642683207988739, -0.25968897342681885, 0.44362571835517883, 0.3524574041366577, 0.20469090342521667, 0.07862122356891632], [0.26635387539863586, -0.28251418471336365, 0.18866589665412903, 0.4916110634803772, 0.16908591985702515, -0.35090696811676025, 0.6082667112350464, 0.19074752926826477, 0.04604049026966095, 0.13851284980773926, 0.18096347153186798, -0.03261246904730797, -0.02805539406836033, 0.13824598491191864, 0.3919726014137268, 0.009879840537905693, -0.0903436690568924, -0.2528362572193146, 0.4515684247016907, -0.06083647161722183, 0.2888094186782837, -0.33819785714149475, 0.006390864960849285, -0.2817588150501251, -0.33361244201660156, 0.3319556713104248, 0.4970443844795227, -0.45125725865364075, 0.2700559198856354, -0.1371520608663559, 0.08956152945756912, 0.034511007368564606], [0.023619316518306732, -0.6347851157188416, -0.016553407534956932, 0.8246647119522095, -0.06840690225362778, -0.6280511021614075, -0.12610672414302826, -0.10852581262588501, 0.10528348386287689, 0.1581510752439499, 0.3639509081840515, -1.4449405670166016, 1.0868198871612549, -0.4143514037132263, 0.8356284499168396, -0.4903624951839447, 0.9832705855369568, -0.05055391788482666, 0.8133993148803711, -0.6581578254699707, -1.0954365730285645, -0.15113714337348938, 0.09642799198627472, -0.24064555764198303, -0.8153392672538757, 0.7968905568122864, 0.8225324749946594, -1.3489036560058594, -1.1181421279907227, 0.21879754960536957, 0.10240713506937027, -0.12233398854732513], [0.15889489650726318, -0.1021169051527977, 0.29096901416778564, 0.2993297874927521, 0.20972350239753723, 0.07649492472410202, -0.3988107442855835, 0.2734529972076416, 0.3091552257537842, -0.026375679299235344, 0.19721341133117676, -0.2638653516769409, 0.02656302973628044, 0.09277280420064926, 0.607459545135498, -0.39236992597579956, 0.11762484163045883, -0.22559580206871033, 0.05840970203280449, -0.3224850594997406, -0.38450971245765686, 0.04671909660100937, 0.07077714055776596, -0.2525676190853119, -0.0025700267869979143, -0.3760814964771271, -0.2531006336212158, -0.04166381061077118, -0.1099732518196106, -0.13074490427970886, -0.065488301217556, 0.17176498472690582]], "layer1_bias": [0.1864553987979889, 0.33285489678382874, 0.22941365838050842, 0.4884302020072937, 0.37870556116104126, 0.07180348038673401, 0.299591988325119, 0.37298038601875305, 0.33285820484161377, 0.12487555295228958, 0.26225024461746216, -0.2567859888076782, 0.17373968660831451, 0.22885704040527344, -0.29137545824050903, 0.3790765702724457, -0.19420474767684937, 0.31958603858947754, 0.2809826731681824, 0.37019482254981995, -0.035090602934360504, 0.11100757122039795, 0.2954176068305969, 0.3136521279811859, 0.17140600085258484, 0.05606530234217644, 0.006661753170192242, 0.044058848172426224, -0.19765795767307281, 0.3405645489692688, 0.3796556293964386, 0.32416415214538574], "layer2_weight": [[0.58018559217453, 0.04490756243467331, -0.0775500163435936, 0.41382724046707153, 0.30120614171028137, -0.05857051908969879, 0.19557125866413116, 0.00844239629805088, 0.21749809384346008, 0.3717927932739258, 0.3320726454257965, -0.21170508861541748, 0.1198098212480545, -0.0012459030840545893, 0.19044125080108643, -0.23172080516815186, 0.4184885621070862, 0.3756648600101471, -0.3817630112171173, 0.41440749168395996, 0.23664842545986176, 0.1097690537571907, 0.013650230132043362, 0.30519551038742065, -0.12350565195083618, -0.053012456744909286, 0.007504243869334459, 0.050849925726652145, 0.13657066226005554, 0.11135482788085938, 0.32157787680625916, 0.386047899723053, 0.2101123034954071, 0.055735453963279724, 0.21672992408275604, 0.07480572164058685, 0.27527934312820435, 0.1671227216720581, -0.008407201617956161, -0.04636113718152046, -0.12546280026435852, -0.16746272146701813, 0.02292083576321602, 0.1778503954410553, 0.04332389682531357, 0.22422248125076294, 0.1628207117319107, -0.3040865659713745, 0.3676220178604126, 0.15641430020332336, -0.3433540165424347, -0.02104455605149269, 0.1888575702905655, 0.15655013918876648, -0.5023818612098694, -1.2114261388778687, 0.28068864345550537, -0.25643080472946167, 0.3857659697532654, 0.03976020589470863, 0.31020426750183105, 0.3144201636314392, 0.4336552023887634, -0.21115988492965698], [-0.631912112236023, -0.08327414840459824, 0.28078097105026245, 0.43050771951675415, 0.2807420790195465, 0.06582807004451752, -0.11276964098215103, 0.43402382731437683, -0.23418594896793365, 0.407956600189209, 0.06288592517375946, -0.25289905071258545, 0.23046402633190155, 0.06734037399291992, -0.07533826678991318, 0.1505412459373474, -0.04901008680462837, 0.02259177528321743, 0.6288927793502808, 0.26367613673210144, -0.05466921254992485, -0.11423404514789581, -0.05699329078197479, 0.24512773752212524, 0.07392823696136475, -0.06532277911901474, -0.13079671561717987, 0.19999437034130096, 0.04903417080640793, -0.01028759777545929, 0.34108415246009827, 0.17364569008350372, -0.10718170553445816, -0.00839313492178917, 0.08220622688531876, -1.1902836561203003, 0.2163722813129425, 0.2790524959564209, -0.6191318035125732, -0.07875476777553558, 0.16029585897922516, -0.060669224709272385, 0.3300015926361084, 0.05487794801592827, 0.2496989220380783, -0.10220927000045776, 0.02058122307062149, 0.24318723380565643, 0.27405670285224915, -0.14753906428813934, -0.00145035982131958, 0.0962275043129921, -1.082018494606018, 0.03909680247306824, 0.15380962193012238, -0.2614855170249939, 0.37702199816703796, 0.6680256128311157, 0.08224298804998398, -0.9817368388175964, 0.6981192231178284, 0.20393474400043488, 0.3044070899486542, -0.13397899270057678], [0.15520812571048737, 0.37926235795021057, 0.2184470295906067, 0.4313444197177887, -0.09296738356351852, 0.2774354815483093, 0.27709460258483887, -0.021133944392204285, 0.12466686964035034, 0.031153494492173195, 0.27647411823272705, 0.10976331681013107, 0.09185803681612015, 0.22443623840808868, -0.2583901286125183, -0.07839906215667725, 0.13593429327011108, 0.30743518471717834, -0.818280816078186, -0.05561046302318573, 0.04133904352784157, 0.15150247514247894, -0.060735076665878296, 0.13882838189601898, 0.1455683708190918, -0.13546212017536163, 0.15896956622600555, 0.22020453214645386, 0.10838165879249573, -0.01881641335785389, 0.1445452719926834, 0.03118814527988434, 0.22084113955497742, 0.11804332584142685, 0.11819656938314438, 0.2743580937385559, 0.27145323157310486, 0.08200512826442719, 0.22017915546894073, -0.2538565695285797, -0.11319399625062943, 0.009414412081241608, -0.21212969720363617, 0.01390585396438837, 0.1840968281030655, 0.32959550619125366, 0.1589846909046173, -0.24805611371994019, -0.07341714203357697, 0.20501337945461273, -0.21573518216609955, 0.2379075437784195, 0.11857927590608597, 0.21682047843933105, -0.1698581427335739, -0.7334958910942078, 0.1353534758090973, -0.7221211194992065, 0.11178890615701675, 0.35854244232177734, 0.026184841990470886, 0.33749276399612427, 0.3749941885471344, -0.14745250344276428], [0.27430254220962524, 0.2045932412147522, 0.14046809077262878, -0.47719740867614746, 0.25082728266716003, 0.40470075607299805, 0.43985655903816223, 0.0036608632653951645, -0.14923755824565887, 0.15577907860279083, 0.40810996294021606, 0.17404647171497345, 0.13483178615570068, 0.335267037153244, -0.2105253040790558, -0.1551411747932434, 0.3723548352718353, 0.4442477524280548, -2.173483371734619, 0.0905466228723526, 0.15430259704589844, 0.15875262022018433, -0.011828376911580563, 0.21138378977775574, -0.10429555177688599, 0.33079269528388977, 0.3935766816139221, 0.29944655299186707, 0.027695750817656517, 0.21493326127529144, 0.06285470724105835, 0.05579095706343651, 0.3020714223384857, 1.627119490876794e-05, -0.037524737417697906, 0.44108831882476807, 0.025046784430742264, 0.019057022407650948, 0.5032399296760559, -0.21462003886699677, 0.08468036353588104, -0.03322317823767662, -1.8134528398513794, 0.2339167296886444, 0.3970003128051758, 0.3732120990753174, 0.2979050576686859, 0.02814093977212906, -0.013435666449368, -0.23234543204307556, -0.13410751521587372, 0.2843460142612457, 0.667670726776123, -0.10319822281599045, 0.1828114241361618, 0.21837840974330902, 0.22619186341762543, -2.034801959991455, 0.32030609250068665, 0.4761403203010559, -0.7046875357627869, 0.3955617845058441, 0.128662109375, -0.07115726917982101], [0.4660567343235016, -0.03161783888936043, 0.3671618402004242, 0.4822847545146942, 0.17870624363422394, 0.35075613856315613, 0.2367713898420334, -0.03722641244530678, 0.04392046853899956, 0.1447044014930725, 0.1339646726846695, -0.2801976203918457, 0.2535783350467682, 0.17037758231163025, 0.16936446726322174, -0.08104413747787476, 0.0889425128698349, 0.20625974237918854, -0.5559869408607483, 0.16124525666236877, 0.2565391957759857, -0.12394694983959198, 0.06100105121731758, -0.12774771451950073, 0.10600072145462036, 0.006783952470868826, 0.26889583468437195, 0.24197399616241455, 0.0010190479224547744, 0.06519225984811783, 0.28796422481536865, 0.3301158845424652, 0.02505040541291237, 0.26811766624450684, 0.1611136645078659, 0.22734688222408295, 0.10125696659088135, 0.04559864476323128, 0.22710148990154266, 0.07611305266618729, 0.23825275897979736, 0.1429382860660553, -0.35680335760116577, 0.24694328010082245, 0.13194063305854797, 0.28982073068618774, 0.16077552735805511, -0.4828953742980957, 0.3145524263381958, -0.1102353036403656, -0.01933523267507553, 0.06949538737535477, 0.0906645804643631, 0.03290966898202896, 0.2025369107723236, 0.14897526800632477, -0.08226838707923889, -0.35949084162712097, 0.03021787852048874, 0.30444300174713135, 0.319900780916214, -0.12472864240407944, 0.26381707191467285, -0.09799935668706894], [0.11774124205112457, 0.16137228906154633, 0.3250335454940796, 0.013039758428931236, -0.07074342668056488, 0.155769944190979, 0.01670301891863346, -0.0018184846267104149, 0.08969997614622116, 0.30926787853240967, -0.052066314965486526, -0.11020174622535706, -0.023113062605261803, 0.26453831791877747, -0.094207763671875, -0.20829612016677856, -0.08334988355636597, 0.3529715836048126, -0.030166611075401306, -0.14865107834339142, 0.09290986508131027, -0.008990872651338577, 0.18093498051166534, -0.03951470926403999, 0.033503830432891846, 0.10679765045642853, 0.10445695370435715, 0.2552398145198822, 0.07681146264076233, -0.03906995803117752, -0.09315665066242218, 0.1256536990404129, -0.07862295210361481, -0.0462559275329113, 0.15214526653289795, -0.8281556963920593, 0.11005686968564987, 0.30196717381477356, -0.47480717301368713, 0.027451155707240105, 0.08494281768798828, 0.058496732264757156, -0.24403539299964905, 0.241130068898201, -0.07677187025547028, 0.009972146712243557, 0.08493102341890335, 0.25386691093444824, -0.14061662554740906, -0.7687378525733948, -0.11404645442962646, 0.07181582599878311, -0.3170764744281769, -0.22860735654830933, 0.14574436843395233, -0.40368059277534485, 0.09121891856193542, 0.0426005944609642, -0.06124059110879898, -0.20900766551494598, -0.03363989666104317, 0.2708006799221039, 0.15575118362903595, -0.2641630172729492], [0.11151298135519028, -0.03378598392009735, 0.14837083220481873, 0.43531712889671326, -0.019583379849791527, 0.2994072139263153, 0.006006697192788124, -0.15796352922916412, -0.1789921671152115, -0.049137093126773834, 0.10384923219680786, -0.22820517420768738, -0.007060713600367308, -0.03633227199316025, -0.07645457237958908, -0.05767631530761719, 0.2513897120952606, -0.11293495446443558, 0.1859571486711502, 0.15004649758338928, 0.07497557997703552, 0.16691410541534424, -0.2143756002187729, -0.028980402275919914, -0.059445321559906006, 0.031465597450733185, -0.10943090915679932, 0.07404172420501709, -0.06462571769952774, -0.17389103770256042, -0.12000489979982376, 0.0006148330285213888, -0.05070778727531433, 0.2253728210926056, 0.160837784409523, -0.8954554200172424, -0.03972167149186134, -0.1609792560338974, -2.276498794555664, -0.1433853954076767, 0.25099852681159973, 0.004862145986407995, -0.00025991382426582277, -0.002536055399104953, 0.20247653126716614, 0.20166081190109253, 0.26408153772354126, 0.18853792548179626, 0.11588296294212341, -0.129242405295372, -0.013025372289121151, 0.1322864145040512, -2.130946397781372, -0.3321413993835449, 0.2345668077468872, 0.22836697101593018, 0.2948398292064667, 0.3397037386894226, -0.08052524924278259, -2.270918130874634, 0.3150739073753357, -0.028799565508961678, -0.16115905344486237, 0.03559671342372894], [0.16541142761707306, -0.11304109543561935, 0.011936127208173275, 0.41701143980026245, 0.16848152875900269, 0.20663364231586456, 0.20707672834396362, 0.33067676424980164, 0.05554146692156792, -0.006372260395437479, 0.24166293442249298, -0.017629126086831093, -0.21150362491607666, 0.33510348200798035, -0.12295106053352356, -0.11374759674072266, -0.009266081266105175, -0.10215610265731812, -0.5359667539596558, 0.1770097315311432, -0.00653608376160264, 0.1338503062725067, 0.08782687783241272, 0.16342203319072723, -0.24549514055252075, 0.22982172667980194, 0.15764665603637695, 0.2065645456314087, -0.28565940260887146, -0.05505499988794327, 0.16055646538734436, 0.3074049949645996, 0.017306042835116386, 0.04507503658533096, 0.198063462972641, 0.30353832244873047, 0.09576145559549332, -0.05545656010508537, -0.09670740365982056, -0.057117752730846405, 0.03450118750333786, 0.20884348452091217, -0.3273286521434784, 0.10832033306360245, 0.1826249063014984, 0.2399493157863617, 0.01660863868892193, -0.34746092557907104, 0.12502241134643555, 0.02209709770977497, 0.04774170741438866, 0.19445815682411194, 0.16634514927864075, -0.00907017569988966, -0.2189907282590866, 0.3833446800708771, 0.32751113176345825, -0.6968560814857483, 0.02885950170457363, -0.10823050886392593, 0.0015264545800164342, -0.09760965406894684, -0.04747965186834335, -0.46978527307510376], [0.12312805652618408, -0.040072374045848846, -0.023533465340733528, 0.0753503367304802, -0.012921943329274654, 0.016466721892356873, 0.29642659425735474, 0.23492933809757233, -0.22136905789375305, 0.28656089305877686, 0.19940859079360962, -0.14917033910751343, 0.08647939562797546, 0.06363828480243683, -0.11310052126646042, -0.15939414501190186, 0.08923360705375671, -0.04368595406413078, -0.6672741770744324, 0.11301509290933609, 0.08870834112167358, -0.14827163517475128, -0.16958758234977722, 0.17819908261299133, 0.025773346424102783, 0.09689471125602722, 0.25316303968429565, 0.17176684737205505, -0.0033202017657458782, 0.23597070574760437, 0.14558453857898712, 0.17201478779315948, 0.1077028140425682, 0.2646608054637909, -0.16733886301517487, 0.3360622525215149, -0.05499614402651787, 0.006247254088521004, 0.2603312134742737, -0.28815561532974243, -0.14249084889888763, 0.027576526626944542, -0.986396074295044, 0.2583364248275757, 0.22481602430343628, 0.048279762268066406, 0.27761536836624146, -0.34769207239151, 0.029533110558986664, 0.18404507637023926, -0.00035252634552307427, 0.14321473240852356, 0.306855171918869, 0.10214079171419144, -0.002151816850528121, -0.06733794510364532, 0.10948548465967178, -0.9817543029785156, -0.05664326250553131, 0.12433957308530807, -0.19139163196086884, -0.17221716046333313, 0.20578111708164215, -0.4156755208969116], [0.5941323637962341, -0.06228839233517647, 0.15648309886455536, 0.364787757396698, 0.0007152879843488336, 0.19871939718723297, 0.36494550108909607, 0.14254315197467804, -0.22249166667461395, 0.06627775728702545, 0.15585128962993622, -0.19646495580673218, -0.1337933987379074, 0.12541350722312927, -0.17989255487918854, 0.031295180320739746, 0.1641959398984909, 0.20020560920238495, 0.13403956592082977, 0.2719852328300476, 0.1686483472585678, -0.013822629116475582, -0.1840696483850479, 0.34749308228492737, 0.1462538242340088, -0.12092451006174088, 0.08615057170391083, 0.17638331651687622, -0.22477692365646362, 0.28697851300239563, 0.0563247911632061, -0.028261855244636536, 0.14665299654006958, 0.021090302616357803, -0.12723740935325623, 0.42944639921188354, 0.24038425087928772, 0.09268610924482346, -0.10262901335954666, -0.25566327571868896, -0.24099348485469818, -0.04793916270136833, 0.09915413707494736, -0.16047720611095428, -0.10653530061244965, 0.2520003616809845, -0.09951511770486832, -0.20879226922988892, 0.15538160502910614, 0.2946101427078247, 0.07222187519073486, -0.008947501890361309, 0.18007640540599823, -0.20006558299064636, -0.6111884713172913, -1.2504427433013916, 0.19089286029338837, -0.00814661756157875, 0.01894441805779934, -0.14841419458389282, 0.14617487788200378, -0.05651213601231575, 0.32335343956947327, -0.009448421187698841], [0.32110777497291565, 0.46943747997283936, 0.09870491176843643, 0.12510976195335388, 0.16144348680973053, 0.453604519367218, 0.15637488663196564, 0.32508373260498047, -0.24649053812026978, 0.2532901167869568, 0.23257321119308472, 0.15609976649284363, -0.02156795561313629, 0.3393380045890808, -0.27250292897224426, -0.24374240636825562, 0.40870019793510437, 0.2472486048936844, -1.0006341934204102, 0.1440848559141159, 0.1439293473958969, -0.14908535778522491, 0.3084006607532501, 0.0787615180015564, -0.2123529314994812, 0.0998002141714096, 0.13752563297748566, 0.3057490587234497, 0.05152290314435959, 0.002093907445669174, 0.18997029960155487, 0.402081161737442, 0.37582334876060486, 0.44377291202545166, 0.35277655720710754, 0.08237651735544205, 0.052162252366542816, 0.12610185146331787, 0.11798833310604095, -0.187583789229393, -0.01877223514020443, -0.4062815010547638, -0.5698234438896179, 0.5075291395187378, 0.4161318838596344, 0.4346242845058441, 0.07709261775016785, 0.20434820652008057, 0.3618975579738617, -0.5568992495536804, 0.18910187482833862, 0.18858268857002258, 0.3560726046562195, 0.08874336630105972, -0.017757222056388855, 0.20459960401058197, 0.3992951214313507, -0.9320467114448547, 0.31480130553245544, 0.4407525062561035, -0.24032524228096008, 0.2904089689254761, 0.12298238277435303, -0.2173304557800293], [-2.630652666091919, -0.3924660086631775, -0.4378950297832489, 0.2652592658996582, -0.617372989654541, -0.7955892086029053, -3.653433322906494, -0.7346315979957581, -0.049247484654188156, -0.5021535754203796, -0.5560171008110046, 0.19375625252723694, -1.158894658088684, -0.46808233857154846, 0.20637637376785278, 0.06733250617980957, -0.8039511442184448, -0.6859711408615112, 0.6034687161445618, -0.513714611530304, -0.2108718454837799, -0.2000337392091751, -0.7693204283714294, -0.3779340386390686, -0.2349950075149536, -0.48688560724258423, -0.3979198634624481, -0.666182279586792, -0.047976054251194, -0.732869565486908, -0.4708840548992157, -0.7841701507568359, -0.9689345359802246, -0.5887479186058044, -0.7786903381347656, -0.5346169471740723, -0.4010539948940277, -0.6211103796958923, 0.22231288254261017, 0.17053145170211792, -0.37080147862434387, 0.7248061895370483, 1.0418996810913086, -0.46230438351631165, -0.5536535978317261, -0.7739335298538208, -0.348965048789978, -0.004852512385696173, -0.5612450242042542, 0.3957330882549286, -0.1861182451248169, -0.4356815814971924, 0.10904467105865479, -0.2505747377872467, -0.5457267761230469, 0.5326131582260132, -0.7745828628540039, 0.832928478717804, -0.5423392653465271, 0.37047094106674194, 0.29999664425849915, -0.4571439325809479, -0.5263992547988892, -0.20774510502815247], [0.31906867027282715, -0.46695777773857117, -0.06302162259817123, -1.0460742712020874, -0.10517246276140213, -0.3816353976726532, 0.2649536728858948, -0.37436118721961975, -0.2138105183839798, -0.4619927704334259, -0.3400154411792755, -0.10768838971853256, -0.3569815456867218, -0.28432878851890564, 0.07041408121585846, -0.1466280221939087, -0.19066709280014038, -0.4084683656692505, -0.5316928625106812, -0.3689824342727661, -0.20197519659996033, 0.023505615070462227, -0.25081390142440796, -0.21665918827056885, -0.12169557809829712, -0.3675523102283478, 0.10485929250717163, -0.35093432664871216, -0.23742765188217163, -0.08418004214763641, -0.24445411562919617, -0.2838335931301117, -0.3497546911239624, -0.396244078874588, -0.367101788520813, 0.32078540325164795, -0.09719417244195938, -0.00788791198283434, 0.33202674984931946, -0.12740808725357056, -0.16424503922462463, 0.08223308622837067, -0.45898792147636414, -0.12160269170999527, -0.3158394396305084, -0.4193084239959717, -0.2489040642976761, -1.050715684890747, -0.2033809870481491, 0.4925304055213928, -0.00644572451710701, -0.21041370928287506, 0.6097821593284607, -0.1314591020345688, -0.34518757462501526, 0.08176718652248383, -0.2681562304496765, -0.7055491209030151, -0.201394185423851, 0.6188657283782959, -0.7462490200996399, -0.22058936953544617, -0.1631162017583847, 0.13588672876358032], [-0.05117203667759895, 0.02282099612057209, -0.01725698821246624, 0.12231198698282242, -0.1311609447002411, -0.11574314534664154, 0.2905619740486145, -0.18577948212623596, -0.15793181955814362, -0.18935595452785492, 0.292646586894989, -0.22521798312664032, 0.0680425614118576, -0.05136426165699959, -0.11326169967651367, 0.006905257701873779, -0.05771951004862785, 0.06014770269393921, 0.3247067630290985, 0.021392636001110077, 0.14571166038513184, -0.16541922092437744, 0.14114663004875183, 0.2898559868335724, 0.2227863073348999, 0.08202185481786728, 0.27618491649627686, 0.3106924593448639, -0.17620143294334412, -0.12260285019874573, -0.1533055305480957, 0.14724667370319366, -0.10566098242998123, 0.09067980945110321, 0.19692325592041016, -0.13222987949848175, 0.10211741924285889, -0.12685003876686096, 0.2484281361103058, -0.1152171641588211, 0.10849791020154953, 0.22199265658855438, 0.3411220908164978, 0.0695638656616211, 0.19897054135799408, 0.25072184205055237, -0.022838648408651352, 0.35485967993736267, 0.0004319676954764873, -0.5135462880134583, -0.14944684505462646, 0.2411171793937683, -0.12365137040615082, -0.1327570676803589, 0.053037118166685104, -0.060598280280828476, -0.002162124263122678, 0.3932315707206726, -0.07005878537893295, -0.4211520850658417, 0.4254086911678314, 0.33259621262550354, 0.1923253983259201, 0.14923538267612457], [0.8205865621566772, -0.6848046183586121, -0.7690649032592773, -5.489075183868408, -0.6575125455856323, -0.7702347636222839, 0.6630138754844666, -0.32777631282806396, 0.06412917375564575, -0.595725953578949, -0.4000251889228821, 0.14972124993801117, -0.6802660822868347, -0.5758535265922546, -0.2640349864959717, 0.0020939111709594727, -0.6695736646652222, -0.5436904430389404, -0.2288987785577774, -0.47852349281311035, -0.35768362879753113, -0.2206309288740158, -0.8409924507141113, -0.25820377469062805, 0.23278552293777466, -1.1235871315002441, -0.3700440227985382, -0.6761483550071716, 0.14102528989315033, -0.8921504616737366, -0.4374646246433258, -0.7962481379508972, -0.7903342843055725, -0.8089649081230164, -0.7631652355194092, 0.21323731541633606, -0.6586799621582031, -0.4398862421512604, 0.7341265082359314, 0.11495936661958694, -0.4477302134037018, 0.616970956325531, -0.10055848956108093, -0.824195384979248, -0.3425184190273285, -0.6650432348251343, -0.7583053708076477, 0.16139383614063263, -0.5150109529495239, 0.5879403352737427, -0.22886696457862854, -0.5597241520881653, 1.16567063331604, 0.1438961625099182, -0.22095739841461182, 0.06238178536295891, -0.6170509457588196, -0.34815436601638794, -0.1709396243095398, 0.956587016582489, -0.9150298833847046, -0.6360248923301697, -0.5669988393783569, 0.047900304198265076], [-0.2417646199464798, -0.01584579423069954, -0.026857992634177208, 0.17653940618038177, -0.09830688685178757, 0.052759528160095215, -0.13863666355609894, 0.24680915474891663, -0.036635059863328934, 0.3048458397388458, -0.0752827525138855, -0.19441549479961395, -0.18243107199668884, 0.11979120224714279, -0.048311829566955566, -0.2206505537033081, -0.14871707558631897, 0.1390371322631836, 0.42815738916397095, 0.11422768235206604, -0.0900942012667656, -0.12964744865894318, 0.05332757905125618, 0.2117878794670105, -0.22070878744125366, -0.09835444390773773, 0.13630157709121704, 0.13688494265079498, 0.1216040849685669, 0.3101966083049774, 0.19716478884220123, 0.1463560163974762, 0.11298692971467972, 0.2576786279678345, 0.19188463687896729, -1.5059528350830078, -0.1601545512676239, -0.21075932681560516, -1.49790620803833, -0.041625939309597015, 0.21315127611160278, 0.08128835260868073, 0.2350483387708664, 0.0009928132640197873, 0.036134328693151474, 0.2820112407207489, -0.09690462052822113, -0.0527733713388443, 0.21809524297714233, -0.026469886302947998, -0.274517685174942, 0.26262566447257996, -1.635815978050232, -0.38143453001976013, -0.10693438351154327, 0.13199906051158905, 0.11486806720495224, 0.17712602019309998, -0.05875728279352188, -1.6626803874969482, 0.4456612169742584, 0.014122575521469116, 0.03745834901928902, -0.24422240257263184], [0.4796290099620819, -0.3645302355289459, -0.2601327896118164, -0.5860821008682251, -0.1502068191766739, -0.32099583745002747, -0.004587586969137192, -0.1211935505270958, -0.08752267062664032, -0.18870507180690765, -0.4631686806678772, 0.15588977932929993, -0.18291011452674866, -0.43008676171302795, 0.16946274042129517, -0.1477864384651184, -0.32412129640579224, -0.13926246762275696, 0.2254677563905716, -0.10552575439214706, 0.09445109963417053, 0.10628966987133026, -0.5545811653137207, -0.24328315258026123, 0.12462890148162842, -0.06492362916469574, 0.12409951537847519, -0.06082863733172417, -0.0893043801188469, -0.5526880025863647, -0.12148018181324005, -0.24430052936077118, -0.5085914731025696, -0.2869345545768738, -0.06714455038309097, -1.3102874755859375, -0.1398637890815735, -0.25264331698417664, 0.34208759665489197, 0.21860842406749725, 0.053238868713378906, 0.11304748803377151, 0.47725602984428406, -0.29067468643188477, -0.3634885251522064, -0.3796488046646118, -0.33473673462867737, 0.26812508702278137, -0.016953498125076294, -0.14157947897911072, -0.16141074895858765, -0.27307382225990295, 0.7243265509605408, 0.25944674015045166, 0.27188923954963684, -0.03497719019651413, -0.2878190875053406, 0.2941998243331909, -0.029904797673225403, 0.9300918579101562, -0.6458327770233154, -0.20699100196361542, -0.09569127857685089, -0.20483183860778809], [-0.24323712289333344, 0.10820610076189041, 0.1864769458770752, 0.4219978153705597, 0.36865857243537903, 0.26231786608695984, -0.09790775924921036, 0.1653551608324051, -0.09846603125333786, 0.39873212575912476, 0.1705450415611267, -0.1714487224817276, 0.24131391942501068, 0.002727134618908167, -0.26841485500335693, 0.010920345783233643, 0.3597815930843353, 0.13646076619625092, 0.4007161557674408, 0.30974021553993225, 0.12292974442243576, -0.22831065952777863, 0.17252381145954132, 0.0162571482360363, -0.03964179754257202, 0.3808780014514923, 0.4221441149711609, 0.3571377992630005, 0.18103112280368805, 0.2866075038909912, 0.020260591059923172, 0.006578224245458841, -0.026255588978528976, 0.2652307450771332, 0.04680231958627701, -0.5624547004699707, 0.35526663064956665, 0.228451207280159, -0.10908691585063934, -0.04123160243034363, 0.14043985307216644, 0.09815668314695358, 0.21749162673950195, 0.18933409452438354, 0.10929582267999649, 0.03833410516381264, 0.39210739731788635, 0.024671882390975952, 0.03955211117863655, -0.2755505442619324, 0.18008387088775635, 0.18631291389465332, -0.8093154430389404, -0.21234501898288727, 0.23691090941429138, -0.20687313377857208, -0.03963977470993996, 0.026955263689160347, 0.38087135553359985, -0.7288318872451782, 0.2285543978214264, 0.41206809878349304, 0.4040772020816803, -0.15290775895118713], [0.5821858644485474, 0.375624418258667, 0.11832751333713531, -0.2913244962692261, 0.24726779758930206, -0.04312136396765709, 0.7067890763282776, 0.1538722962141037, 0.09860581904649734, 0.17714299261569977, 0.030812755227088928, -0.065312460064888, -0.05892365053296089, 0.36054861545562744, -0.2267836630344391, -0.18377894163131714, 0.007212835829705, 0.2517346739768982, -0.6899896264076233, 0.264494925737381, -0.0698598250746727, -0.22299377620220184, -0.027869638055562973, -0.03140388801693916, -0.1584329605102539, 0.1354624330997467, -0.06903145462274551, -0.016342950984835625, 0.07142138481140137, 0.3381517231464386, 0.3292647898197174, 0.37119996547698975, -0.05032845586538315, 0.3227647542953491, -0.09247472137212753, 0.4687025845050812, -0.003689836710691452, -0.12795203924179077, 0.5898998975753784, 0.021818900480866432, 0.035453204065561295, -0.16425104439258575, -0.5961147546768188, 0.1571015864610672, -0.019794994965195656, 0.25841212272644043, 0.04664080590009689, 0.14455658197402954, 0.16940025985240936, -0.14805345237255096, -0.19927126169204712, 0.022815560922026634, 0.5711415410041809, 0.3466249704360962, 0.05197340250015259, 0.045543868094682693, 0.30856263637542725, -1.3212754726409912, -0.0924801155924797, 0.8240634202957153, -0.6251943111419678, 0.20405951142311096, 0.30857905745506287, 0.11662957817316055], [-0.21803417801856995, 0.057511430233716965, 0.09817471355199814, 0.1082921251654625, 0.23616436123847961, -0.07487256079912186, -0.007564939558506012, -0.015630623325705528, -0.05017060041427612, -0.0790509507060051, 0.08220814913511276, 0.10163874924182892, -0.03872322291135788, 0.2607773542404175, 0.14224272966384888, -0.2389470338821411, 0.10183793306350708, 0.1700931191444397, 0.40487244725227356, 0.18632878363132477, -0.051922544836997986, -0.2327587604522705, 0.06238988786935806, 0.2529422640800476, -0.09525823593139648, 0.04477209597826004, 0.16162557899951935, 0.06296530365943909, -0.09615423530340195, 0.17699342966079712, 0.22337694466114044, 0.19307740032672882, -0.11010287702083588, -0.057538293302059174, 0.2667864263057709, -1.1972664594650269, 0.34694045782089233, 0.29918456077575684, -1.5790337324142456, 0.20698751509189606, -0.12279676645994186, -0.0545923113822937, 0.3991048336029053, 0.1958966702222824, 0.32959771156311035, -0.051494427025318146, 0.32290759682655334, 0.11469557136297226, 0.06742700189352036, 0.15082359313964844, 0.05983870103955269, 0.020043671131134033, -1.8564176559448242, -0.2163546085357666, -0.25703367590904236, -0.045230839401483536, 0.13974277675151825, 0.4115886390209198, -0.004785440396517515, -1.7536420822143555, 0.3424813449382782, -0.0007956069894134998, 0.021908706054091454, 0.08316312730312347], [-1.1392048597335815, -0.15083612501621246, -0.3198293447494507, -0.3630382716655731, -0.04166437312960625, -0.18961353600025177, -1.1392548084259033, -0.3968294858932495, -0.1034613698720932, 0.04067622497677803, -0.3338102102279663, 0.054903991520404816, -0.3220747709274292, -0.4044587016105652, -0.10383263975381851, -0.09007585048675537, -0.21523155272006989, -0.2413320094347, 0.8224994540214539, -0.42965638637542725, -0.2603496313095093, -0.2447216510772705, -0.0670425146818161, -0.36400818824768066, -0.16880744695663452, -0.13607361912727356, -0.14050307869911194, -0.40181154012680054, 0.05607416108250618, -0.4331952929496765, -0.45041245222091675, -0.3759174644947052, -0.27859625220298767, 0.02182280831038952, -0.27266401052474976, -1.071150541305542, -0.4983540177345276, 0.3023364841938019, 0.06116732209920883, 0.1530369520187378, -0.22630956768989563, 0.32654133439064026, 0.6911904215812683, 0.07513359189033508, -0.15635807812213898, 0.02468584105372429, -0.3881012201309204, 0.29771506786346436, -0.03868500888347626, 0.6376101970672607, -0.12637688219547272, -0.03462108597159386, 0.027677815407514572, -0.1196923553943634, 0.09327451139688492, -0.0022290090564638376, -0.04826663061976433, 0.8914855718612671, -0.28772905468940735, -0.09714669734239578, 0.3136843144893646, -0.13417814671993256, -0.5362640023231506, -0.03795504570007324], [-0.00266761751845479, -0.03630312532186508, -0.07922307401895523, -0.10567402094602585, -0.09623986482620239, 0.13326992094516754, 0.254018634557724, -0.02956545166671276, 0.02878236025571823, 0.038825299590826035, 0.06421418488025665, 0.0039314827881753445, -0.12054456025362015, -0.09746146202087402, 0.1787213683128357, -0.07535499334335327, 0.01971573382616043, 0.20339076220989227, -0.13044194877147675, 0.10295913368463516, -0.14633071422576904, -0.08443043380975723, -0.16867513954639435, 0.20060841739177704, -0.1907222867012024, -0.33445173501968384, -0.002450549276545644, 0.27298182249069214, -0.15658777952194214, 0.14192092418670654, -0.028029916808009148, 0.20663952827453613, 0.08834543079137802, 0.18985721468925476, 0.14549623429775238, -0.10211428999900818, -0.13084907829761505, 0.26668334007263184, 0.005822138395160437, -0.055622123181819916, -0.02962128072977066, -0.1306612193584442, -0.7425916790962219, -0.08552149683237076, 0.24998727440834045, -0.10523974150419235, -0.1393338292837143, -0.17346076667308807, -0.20215292274951935, -0.10632533580064774, -0.3590506911277771, -0.033292580395936966, 0.13525284826755524, -0.12090977281332016, 0.013750390149652958, 0.055150557309389114, -0.1381274163722992, -0.154801607131958, 0.037671949714422226, 0.18698562681674957, -0.030213218182325363, 0.1320437341928482, -0.018858887255191803, -0.33270275592803955], [0.37883561849594116, 0.35456228256225586, -0.09187744557857513, 0.35938072204589844, 0.3163745701313019, 0.05020228773355484, 0.23767875134944916, -0.004716248717159033, -0.25344741344451904, 0.07677823305130005, 0.3438514471054077, 0.020425565540790558, 0.00878819078207016, -0.11838189512491226, -0.18538330495357513, -0.06160557270050049, 0.3056265115737915, 0.1652466058731079, -0.3729018270969391, -0.09266287088394165, -0.08690337091684341, -0.0029424335807561874, -0.08121070265769958, -0.1587231159210205, -0.064261794090271, 0.15982094407081604, -0.03145429491996765, 0.04094830900430679, -0.22471757233142853, 0.015052961185574532, -0.022659853100776672, 0.34385356307029724, 0.12029523402452469, 0.2194984257221222, 0.23991093039512634, 0.228720024228096, 0.30717888474464417, 0.2618792951107025, 0.28060677647590637, -0.05997593700885773, 0.2903628647327423, 0.16887809336185455, -0.5435177683830261, -0.004616072401404381, -0.017063643783330917, -0.07643596082925797, 0.007126705255359411, -0.3740547001361847, 0.21249578893184662, -0.19563350081443787, -0.15808548033237457, 0.28929150104522705, 0.2121151238679886, -0.16214734315872192, 0.07285880297422409, -0.1607958972454071, 0.1426497846841812, -0.2443167269229889, 0.15923278033733368, 0.3197391629219055, 0.12223410606384277, 0.14124587178230286, 0.26017242670059204, -0.08093954622745514], [-0.009878569282591343, 0.019809724763035774, 0.21641261875629425, 0.14560899138450623, 0.41903769969940186, 0.023338204249739647, 0.04857742786407471, 0.4089670777320862, 0.08954543620347977, 0.2368604689836502, -0.03573663532733917, -0.07089940458536148, 0.23426109552383423, 0.389619380235672, 0.04817338287830353, 0.18448328971862793, 0.2802949547767639, 0.10470806807279587, 0.4965970814228058, 0.1093713566660881, 0.14993658661842346, -0.010909724049270153, 0.33452269434928894, -0.013898254372179508, 0.05758267641067505, 0.2782483994960785, 0.21954728662967682, 0.06030485779047012, -0.1514855921268463, 0.3316884934902191, 0.16704310476779938, 0.37646618485450745, 0.24098864197731018, 0.2026817798614502, 0.25047433376312256, -0.3459671139717102, -0.01486723218113184, 0.19634656608104706, -0.2072618156671524, 0.21401922404766083, 0.0075670755468308926, -0.021977711468935013, 0.347046434879303, 0.1812499761581421, -0.0029986787121742964, -0.03754422441124916, 0.3561854064464569, 0.028471501544117928, 0.2556218206882477, -0.13151276111602783, 0.013273831456899643, 0.17661312222480774, -0.6670432686805725, -0.0594753697514534, -0.2539273500442505, -0.22158299386501312, 0.240366593003273, 0.2447105199098587, 0.051820896565914154, -0.9426417350769043, 0.07539420574903488, -0.01358241867274046, 0.081745944917202, -0.10301992297172546], [-0.08007649332284927, -0.08094954490661621, 0.23137667775154114, 0.0719689428806305, 0.35446491837501526, 0.08146854490041733, 0.00356008717790246, 0.16839633882045746, 0.037040069699287415, 0.02681105025112629, -0.054352886974811554, 0.14472098648548126, 0.004915015771985054, 0.15405091643333435, 0.16241055727005005, 0.053771793842315674, 0.16823261976242065, 0.03875468298792839, 0.28741297125816345, 0.2981932759284973, 0.06202976405620575, 0.05511770769953728, 0.2504594922065735, -0.04371022805571556, 0.10879814624786377, -0.1971883624792099, 0.03482444956898689, -0.03336469456553459, 0.04159842059016228, 0.24641366302967072, 0.03294074162840843, -0.059088364243507385, -0.08571229875087738, 0.1861068308353424, -0.051459286361932755, -0.6787261366844177, 0.42152807116508484, -0.12444746494293213, -1.0641666650772095, -0.08746477961540222, 0.136227548122406, -0.13302496075630188, -0.04609675332903862, 0.39951497316360474, 0.03272782638669014, 0.21926327049732208, 0.2065020352602005, -0.07742176949977875, -0.06421171128749847, -0.33488279581069946, -0.2643607556819916, 0.2657354772090912, -0.7599654197692871, 0.029099423438310623, 0.30663514137268066, -0.15444450080394745, 0.05448341742157936, 0.5405831336975098, -0.07765603065490723, -0.9838474988937378, 0.4680435061454773, 0.19627463817596436, -0.09892868250608444, -0.12086576968431473], [0.7264972925186157, 0.04862071946263313, 0.19997824728488922, 0.2618340849876404, 0.1101716086268425, 0.34305518865585327, 0.27796751260757446, 0.11279129236936569, -0.13247966766357422, -0.14802463352680206, 0.2048911303281784, 0.11951571702957153, 0.2561482787132263, 0.23945555090904236, -0.019053511321544647, 0.14415353536605835, 0.2323077917098999, 0.2896463871002197, -0.14341771602630615, 0.2637617588043213, -0.16856929659843445, -0.17905357480049133, 0.10630565881729126, 0.04660588130354881, -0.09928959608078003, 0.06837181746959686, -0.0595744252204895, -0.1603267639875412, -0.1086382046341896, 0.11596081405878067, -0.05639725551009178, -0.05177232623100281, -0.05331660807132721, 0.137073814868927, 0.04964808002114296, -0.10022522509098053, -0.05139480158686638, 0.2845292091369629, -0.4553968608379364, -0.22194691002368927, 0.08309096097946167, 0.23397278785705566, -0.33554598689079285, -0.14246748387813568, 0.037798233330249786, -0.0666816234588623, 0.002478349953889847, -0.6846624612808228, -0.1017107367515564, 0.12254013121128082, -0.19874730706214905, 0.13922415673732758, -0.38032180070877075, -0.37681400775909424, -0.3231837749481201, -0.7890570759773254, 0.01936902478337288, -0.05464376136660576, 0.2874549925327301, 0.017562447115778923, 0.027136215940117836, -0.20829372107982635, -0.07345372438430786, 0.11520495265722275], [0.03734791651368141, 0.14403030276298523, 0.19934652745723724, 0.526725172996521, 0.2843244969844818, -0.09164194017648697, 0.21546950936317444, -0.03129296377301216, -0.02359587885439396, 0.19198454916477203, 0.3113904893398285, 0.035232897847890854, -0.2007920742034912, 0.1291169673204422, -0.03282805159687996, -0.14876681566238403, 0.18230602145195007, -0.012164555490016937, 0.1250184178352356, 0.1114487498998642, 0.2790648341178894, 0.16400237381458282, 0.2019045054912567, -0.03220823034644127, 0.2103237509727478, -0.14513492584228516, -0.021623505279421806, 0.05046497657895088, -0.13759830594062805, 0.17597627639770508, -0.15770213305950165, -0.06460580974817276, 0.00625297287479043, 0.20044945180416107, 0.2980557680130005, -0.217868372797966, -0.058299820870161057, -0.08466556668281555, -1.3679325580596924, -0.08376826345920563, 0.2479151040315628, -0.1569245606660843, 0.08641214668750763, 0.32942289113998413, 0.1735694408416748, 0.27504482865333557, 0.16710253059864044, 0.17343759536743164, 0.3236638903617859, -0.4099905788898468, 0.13706441223621368, -0.009876036085188389, -1.2211748361587524, -0.09286156296730042, 0.4428023397922516, 0.24109967052936554, 0.19066356122493744, 0.05851951986551285, -0.07225335389375687, -1.3622832298278809, -0.033873990178108215, 0.20515750348567963, -0.07026628404855728, -0.015292128548026085], [0.08510904759168625, 0.1651250272989273, 0.19099800288677216, 0.3696058392524719, 0.03357250615954399, -0.051097553223371506, -0.09845124185085297, -0.15197211503982544, -0.25419721007347107, 0.16470620036125183, 0.10525213181972504, -0.07986197620630264, 0.19450689852237701, -0.015482760965824127, -0.1535247266292572, 0.19174575805664062, -0.07513895630836487, 0.27177000045776367, 0.6203222274780273, -0.14612960815429688, -0.15732400119304657, -0.012062480673193932, 0.1970011293888092, 0.044167421758174896, -0.14114117622375488, -0.05660100653767586, 0.055028654634952545, -0.1570388227701187, -0.039951082319021225, -0.1232723519206047, 0.02628273516893387, -0.08402043581008911, -0.0751534104347229, -0.15422292053699493, 0.10933960974216461, -0.6404415369033813, -0.06117784604430199, -0.24891285598278046, -0.6246529221534729, -0.2370927482843399, 0.2604277431964874, 0.029613744467496872, 0.4457310438156128, -0.11268430203199387, 0.31267979741096497, -0.1444675773382187, 0.14411859214305878, 0.24721278250217438, 0.08206962794065475, -0.6688377261161804, 0.20774999260902405, 0.09553210437297821, -0.5774208903312683, -0.23536819219589233, 0.26600900292396545, -0.13824915885925293, -0.13417266309261322, 0.5351213812828064, 0.14271172881126404, -0.4304403066635132, 0.5987557172775269, -0.22384725511074066, -0.19374985992908478, -0.05046926066279411], [-1.7093065977096558, -0.27973467111587524, -0.27229562401771545, -0.2730379104614258, -0.3050336241722107, -0.1572684943675995, -1.730292558670044, -0.29748284816741943, 0.15452075004577637, -0.242177814245224, -0.12837408483028412, 0.14228302240371704, -0.26186078786849976, -0.37838292121887207, 0.14048779010772705, -0.12160718441009521, -0.2753884494304657, -0.19556006789207458, 0.6182799339294434, -0.23766914010047913, -0.5076209306716919, -0.12984628975391388, -0.25186505913734436, -0.4168063998222351, -0.1718209981918335, -0.3981850743293762, -0.4151194095611572, -0.011327814310789108, 0.14196614921092987, -0.028220126405358315, -0.5423815846443176, -0.4150436222553253, -0.5515251159667969, -0.35288113355636597, -0.1428191065788269, -1.9422248601913452, -0.1258707046508789, -0.06565271317958832, -0.05431821569800377, 0.04822517931461334, -0.16205117106437683, 0.37807944416999817, 0.6816160082817078, -0.20721596479415894, 0.09919384121894836, 0.06662511080503464, -0.1763666719198227, -0.40594160556793213, -0.10081446915864944, 0.4616890251636505, -0.10412921756505966, -0.2482917457818985, -0.24112574756145477, 0.12801770865917206, -0.7562347054481506, -0.33585864305496216, -0.2425042986869812, 0.46382200717926025, -0.4163559079170227, 0.06416471302509308, 0.16236630082130432, -0.216109499335289, -0.14834868907928467, -0.3452284336090088], [0.22798039019107819, 0.11614330112934113, 0.10418768972158432, 0.14973048865795135, 0.3636566996574402, 0.08723895996809006, 0.4005158543586731, 0.3136461079120636, -0.09382183849811554, 0.2517229914665222, 0.06609854847192764, -0.03524508327245712, 0.37071722745895386, 0.21231554448604584, -0.2751506567001343, -0.012384355068206787, 0.11218281835317612, 0.17448854446411133, -0.10151857882738113, 0.29134616255760193, 0.13434243202209473, -0.07926414906978607, 0.3027186989784241, 0.12487088888883591, 0.043855905532836914, 0.10112959146499634, 0.32449761033058167, 0.3633435070514679, -0.022083133459091187, 0.49293801188468933, 0.013294711709022522, 0.10427524149417877, 0.23041412234306335, 0.2963768541812897, 0.2255019098520279, 0.15463951230049133, 0.40820255875587463, 0.18038780987262726, 0.01728072389960289, -0.11770986765623093, 0.018314536660909653, -0.2320587933063507, -0.22525347769260406, 0.34247592091560364, 0.4340141713619232, 0.23650500178337097, 0.18670299649238586, -0.7991793751716614, 0.43242302536964417, 0.09950694441795349, -0.2757585346698761, 0.38203856348991394, -0.22098302841186523, -0.01078777015209198, 0.12732553482055664, 0.030979592353105545, 0.08728921413421631, -0.07285917550325394, 0.07738671451807022, -0.38958263397216797, 0.25075042247772217, 0.07288795709609985, 0.09885496646165848, 0.0940757617354393], [0.3619978725910187, 0.08287660032510757, 0.013316076248884201, 0.18076191842556, 0.2551953196525574, -0.07568639516830444, 0.42304182052612305, 0.0951012447476387, -0.027566125616431236, -0.08545336127281189, -0.033267173916101456, -0.016496481373906136, -0.12709686160087585, 0.11756007373332977, -0.06882400810718536, -0.14653939008712769, 0.2785394489765167, 0.29702702164649963, 0.014600907452404499, 0.03939221054315567, 0.09913330525159836, -0.1784030646085739, 0.13732506334781647, 0.3118472099304199, -0.10639721155166626, 0.4099946916103363, 0.1595979481935501, -0.0027120120357722044, -0.20300859212875366, -0.03889928013086319, 0.332916796207428, 0.1709008812904358, 0.07117798924446106, 0.23246318101882935, -0.14585831761360168, 0.23403207957744598, 0.04856580123305321, 0.2730081081390381, -0.06252197176218033, 0.21289458870887756, 0.29038769006729126, -0.014582221396267414, -0.0014000847004354, 0.17744174599647522, 0.2315066009759903, -0.10318171232938766, 0.28869515657424927, -0.9932743310928345, -0.03638758882880211, 0.16810397803783417, 0.12697955965995789, 0.26670753955841064, -0.14356815814971924, 0.15710486471652985, -0.26295432448387146, 0.4188070595264435, 0.07720606029033661, -0.3920140564441681, 0.130778968334198, -0.24936443567276, 0.24879930913448334, 0.37715455889701843, 0.4128606617450714, 0.11181619763374329], [0.10706353932619095, 0.24522922933101654, 0.17258743941783905, 0.06741460412740707, -0.06868799030780792, 0.1887478232383728, 0.04259893670678139, 0.22304938733577728, 0.16480278968811035, 0.06317491084337234, 0.03201263025403023, -0.030121618881821632, -0.10375911742448807, -0.03433789312839508, 0.1554688811302185, -0.20230013132095337, 0.07544451951980591, 0.1121065616607666, -0.5132088661193848, -0.04275152087211609, -0.02659493498504162, -0.03453228250145912, 0.28963977098464966, 0.2968447208404541, -0.16910016536712646, -0.14670699834823608, -0.044834479689598083, 0.17759360373020172, -0.18739505112171173, -0.1305970400571823, 0.0852493941783905, 0.20048940181732178, 0.18880797922611237, 0.3049798905849457, 0.13564713299274445, 0.010727196000516415, 0.30197128653526306, -0.06889061629772186, -0.02859126403927803, -0.18800438940525055, -0.03436540812253952, 0.11564737558364868, -0.5871644020080566, -0.12855155766010284, 0.2822093367576599, -0.08367094397544861, 0.2565903961658478, -0.1905563473701477, 0.1532481461763382, -0.04960237815976143, -0.023834198713302612, 0.041495922952890396, -0.1389102339744568, 0.025764048099517822, 0.003725562710314989, 0.0028278722893446684, -0.08224789053201675, -0.1780661940574646, -0.08086585253477097, -0.046581435948610306, 0.32079359889030457, 0.33171018958091736, 0.15569044649600983, 0.021399125456809998]], "layer2_bias": [0.2155367136001587, 0.259337842464447, 0.21418270468711853, 0.1588210165500641, 0.24091199040412903, 0.23136259615421295, 0.1576819270849228, 0.2636528015136719, -0.010598519816994667, 0.24337579309940338, 0.2112162709236145, -0.04218442738056183, 0.201256662607193, 0.22685307264328003, -0.02403045818209648, 0.0, 0.24177975952625275, 0.21216344833374023, 0.09090089052915573, 0.2405601441860199, 0.19109560549259186, -0.023060018196702003, 0.22732175886631012, 0.21025386452674866, 0.0, 0.195373997092247, 0.2052488625049591, 0.22481849789619446, -0.028944022953510284, 0.20790909230709076, 0.216871976852417, 0.24245905876159668, 0.23136970400810242, 0.20385853946208954, 0.20747485756874084, 0.08871746063232422, 0.26559045910835266, 0.15734116733074188, 0.05954691395163536, -0.011191895231604576, 0.19206897914409637, -0.13790784776210785, -0.09817513078451157, 0.20902960002422333, 0.19084754586219788, 0.2141398936510086, 0.22162871062755585, 0.02967272512614727, 0.1832491159439087, -0.126705139875412, -0.0654524564743042, 0.19745925068855286, -0.05975911766290665, -0.005507966037839651, -0.02495075762271881, 0.06827381253242493, 0.22879475355148315, -0.047115717083215714, 0.21106959879398346, 0.021873269230127335, 0.18825238943099976, 0.22975625097751617, 0.2498120814561844, -0.013431360945105553], "layer3_weight": [[-0.6782360672950745, -0.5980604887008667], [0.48717737197875977, 0.31324899196624756], [0.26233887672424316, 0.4792505204677582], [0.06401586532592773, -0.8527174592018127], [0.3845864236354828, 0.380071759223938], [0.2846783697605133, 0.4757518172264099], [-0.725069522857666, -0.05757034197449684], [0.2813222408294678, 0.41826584935188293], [-0.1437845528125763, 0.01123794075101614], [0.1743013709783554, 0.2539694905281067], [0.23558256030082703, 0.3031470477581024], [-0.12489356845617294, 0.09933610260486603], [0.17185255885124207, 0.42943075299263], [0.4068213701248169, 0.45108696818351746], [-0.2401263266801834, 0.0063543496653437614], [-0.10080014169216156, 0.223100483417511], [0.2511301636695862, 0.3085857331752777], [0.21697130799293518, 0.43424731492996216], [-0.5946427583694458, -1.3283849954605103], [0.29180654883384705, 0.1964363008737564], [0.32178735733032227, 0.041995223611593246], [-0.24015238881111145, 0.319467157125473], [0.2715550661087036, 0.560626745223999], [0.3642594516277313, 0.06189215928316116], [0.06502547860145569, -0.24543941020965576], [0.24004778265953064, 0.15583977103233337], [0.3636910617351532, 0.041401226073503494], [0.3059338629245758, 0.38997840881347656], [-0.20866036415100098, -0.10411285609006882], [0.47359317541122437, 0.5064814686775208], [0.43063488602638245, 0.09997069090604782], [0.35035356879234314, 0.2366042286157608], [0.21680136024951935, 0.3980266749858856], [0.34922805428504944, 0.467992901802063], [0.1542709767818451, 0.36692002415657043], [-1.12608802318573, 0.8987088799476624], [0.3987853527069092, 0.3972141146659851], [0.023032333701848984, 0.49040913581848145], [-0.8835214972496033, -0.9882860779762268], [-0.24300146102905273, 0.04370082542300224], [0.0956604853272438, 0.31167808175086975], [-0.2425798624753952, -0.13213445246219635], [-1.5090488195419312, -0.2248094528913498], [0.28005245327949524, 0.43034812808036804], [0.19081321358680725, 0.4416835308074951], [0.1811094731092453, 0.3255454897880554], [0.4796980917453766, 0.42865487933158875], [-0.5965414047241211, -0.7279958724975586], [0.2904302775859833, 0.06469356268644333], [-0.7666493654251099, -0.3254181146621704], [-0.10156363248825073, -0.08276892453432083], [0.4088720381259918, 0.09874258935451508], [-1.0284874439239502, -1.250694751739502], [-0.024552997201681137, -0.15608370304107666], [-0.2529812753200531, 0.0937543585896492], [-0.13464640080928802, 0.6545460224151611], [0.3343760073184967, 0.4637055993080139], [-0.9599616527557373, -0.8254489898681641], [0.35079678893089294, 0.03728940710425377], [-0.8192956447601318, -1.1154367923736572], [-0.5027424693107605, -0.6610763669013977], [0.457397997379303, 0.32585543394088745], [0.47507765889167786, 0.2205650955438614], [-0.2445758581161499, 0.253599613904953]], "layer3_bias": [0.1984473615884781, 0.17116963863372803]}