{"layer1_weight": [[0.06790978461503983, -0.052055537700653076, 0.16093194484710693, -0.77588951587677, -0.059081628918647766, 0.19618543982505798, -0.6751782894134521, -0.13915415108203888, -0.009477348998188972, -0.053200963884592056, -0.4451949894428253, 0.001911840750835836, 0.4930141568183899, -0.4874778687953949, -0.7556515336036682, 0.12366329878568649, -0.8814480304718018, 0.0440254807472229, -0.2796074450016022, 0.10145065188407898, -0.4224165976047516, 0.45663321018218994, 0.06874971836805344, 0.1355285346508026, 0.11538583040237427, -0.03500545397400856, -0.5851854681968689, -0.21182166039943695, 0.6111485958099365, 0.25924867391586304, 0.07029877603054047, 0.010990087874233723], [0.2785453498363495, -0.10456916689872742, 0.23532357811927795, 0.40058690309524536, 0.09592710435390472, -0.317893385887146, 0.6786766648292542, 0.16996878385543823, 0.041502244770526886, 0.006320139393210411, 0.11327116936445236, -0.07508470863103867, -0.18199248611927032, 0.37258756160736084, 0.2882641553878784, 0.0966724157333374, -0.00972907803952694, -0.2118084877729416, 0.46757179498672485, -0.007418015040457249, 0.2827741503715515, -0.2516099512577057, -0.13527992367744446, -0.1460282951593399, -0.1455487608909607, 0.06320241093635559, 0.5410994291305542, -0.1656949818134308, 0.2942729890346527, -0.1298147439956665, 0.045783620327711105, 0.008629856631159782], [0.33412328362464905, -1.1061831712722778, 0.26658132672309875, 1.2081726789474487, 0.3603808283805847, -0.4514757990837097, -0.42828497290611267, 0.36533454060554504, 0.7169977426528931, 1.149646520614624, 0.5770850777626038, -2.1639633178710938, 1.4926477670669556, -0.7745898365974426, 1.243422508239746, -1.1026026010513306, 0.840811550617218, -0.3343963027000427, 1.3031151294708252, -1.271342158317566, -1.449458122253418, 0.5035842657089233, 0.7365148663520813, -0.6919934153556824, -1.2514475584030151, 0.9275819063186646, 1.1363303661346436, -1.4639034271240234, -1.0302046537399292, 0.21221023797988892, 0.12006166577339172, 0.22420404851436615], [0.20109689235687256, -0.026192503049969673, 0.2582959532737732, 0.16119204461574554, 0.27360957860946655, 0.01576731726527214, -0.303731232881546, 0.29002100229263306, 0.22998175024986267, 0.05478831008076668, 0.18958869576454163, -0.25581422448158264, -0.05652586743235588, 0.2300872653722763, 0.5959997177124023, -0.2782415449619293, 0.06341835856437683, -0.16232024133205414, -0.10092917829751968, -0.22689633071422577, -0.2123749554157257, -0.024937903508543968, 0.034945905208587646, -0.30112865567207336, 0.09068846702575684, -0.27678149938583374, 0.022378040477633476, 0.0655384287238121, -0.02541879564523697, -0.10026419162750244, -0.12204239517450333, 0.20567883551120758]], "layer1_bias": [0.09431996196508408, 0.37343037128448486, 0.18176040053367615, 0.45874810218811035, 0.38553062081336975, -0.0651470497250557, 0.3204856216907501, 0.3382241427898407, 0.4025990068912506, 0.0333603210747242, 0.2565176784992218, -0.3730100989341736, 0.08140096813440323, 0.10359754413366318, -0.5263125896453857, 0.45542973279953003, -0.12378277629613876, 0.38185787200927734, 0.17640578746795654, 0.5092728137969971, -0.18690043687820435, -0.2859039604663849, 0.24662889540195465, 0.377312034368515, 0.2625129222869873, 0.0017497761873528361, -0.34946930408477783, -0.2764888405799866, -0.7099884748458862, 0.37174558639526367, 0.3130645453929901, 0.2709416449069977], "layer2_weight": [[0.3372305929660797, 0.004899968393146992, -0.08261271566152573, 0.2632291316986084, 0.2713238298892975, -0.06382441520690918, 0.07190287858247757, 0.012418795377016068, 0.1857772320508957, 0.34122544527053833, 0.33931371569633484, -0.21170508861541748, 0.17673829197883606, -0.0254416074603796, 0.15867705643177032, -0.23172080516815186, 0.37876784801483154, 0.36401379108428955, -0.10328075289726257, 0.34802982211112976, 0.3287772834300995, 0.07800327241420746, 0.013471568934619427, 0.21508429944515228, -0.12350565195083618, -0.008525383658707142, -0.06830238550901413, 0.02980205975472927, 0.525014340877533, 0.04795379936695099, 0.2478797733783722, 0.32513371109962463, 0.28461310267448425, 0.04115261137485504, 0.2106240689754486, 0.09055758267641068, 0.2517703175544739, 0.18769189715385437, 0.3021273612976074, -0.19385653734207153, -0.02472751960158348, -0.1553642302751541, -0.3669450283050537, 0.16234558820724487, 0.046343762427568436, 0.19163747131824493, 0.13485568761825562, -0.3040865659713745, 0.2590731978416443, 0.45478901267051697, -0.3433540165424347, -0.10851801186800003, 0.2641185224056244, 0.09126932919025421, -0.8487505912780762, -1.883476972579956, 0.2688301205635071, -0.01986336149275303, 0.36878204345703125, 0.1278357356786728, 0.26042595505714417, 0.26602956652641296, 0.36166366934776306, -0.21115988492965698], [-0.5046414136886597, -0.05864773318171501, 0.29749923944473267, 0.4352447986602783, 0.2992657721042633, 0.08606960624456406, -0.029757561162114143, 0.4259225130081177, -0.26392558217048645, 0.3707081079483032, 0.05660576745867729, -0.284664511680603, 0.2794354557991028, 0.09504542499780655, -0.10710111260414124, 0.1505412459373474, -0.0519782230257988, 0.033174779266119, 0.6732341051101685, 0.24555785953998566, -0.1766272783279419, -0.14599870145320892, 0.008628265000879765, 0.21792513132095337, 0.07392823696136475, -0.0408782958984375, -0.16506828367710114, 0.2114683985710144, -0.47761526703834534, -0.11369042843580246, 0.32252615690231323, 0.16178980469703674, -0.05991484224796295, 0.017955133691430092, 0.06851842254400253, -0.8713743090629578, 0.20782648026943207, 0.27584195137023926, -0.9545738697052002, -0.11681622266769409, 0.09684718400239944, -0.20174585282802582, 0.33091893792152405, 0.06830061972141266, 0.25643137097358704, -0.09900657832622528, 0.048974741250276566, 0.2649085819721222, 0.22213312983512878, -1.5250177383422852, -0.00145035982131958, 0.0815754309296608, -1.5050981044769287, -0.36213964223861694, 0.11941713094711304, -0.32552021741867065, 0.40112558007240295, 0.7235488295555115, 0.04274144396185875, -1.3363330364227295, 0.6612375378608704, 0.2199433296918869, 0.3004608452320099, -0.13397899270057678], [-0.02526930719614029, 0.36611589789390564, 0.21743877232074738, 0.338046669960022, -0.10571986436843872, 0.2798532247543335, 0.12560202181339264, -0.014188162982463837, 0.092943474650383, 0.0038103973492980003, 0.27031126618385315, 0.10976331681013107, 0.09013886004686356, 0.2175542563199997, -0.2901538610458374, -0.07839906215667725, 0.10900424420833588, 0.2991006076335907, -0.978321373462677, -0.10244376957416534, 0.1412668526172638, 0.11973659694194794, -0.1071469634771347, 0.07348881661891937, 0.1455683708190918, -0.09377554804086685, 0.10818527638912201, 0.2091701477766037, 0.4573407769203186, -0.10330778360366821, 0.09505321085453033, -0.00802682340145111, 0.2752358317375183, 0.11401905119419098, 0.10892625898122787, 0.3083111643791199, 0.2541060447692871, 0.08337637782096863, 0.4685501754283905, -0.5291996002197266, -0.054562877863645554, -0.000372465408872813, -0.3681577444076538, 0.007149447686970234, 0.18541467189788818, 0.3040778338909149, 0.14948706328868866, -0.21607989072799683, -0.1592455953359604, 0.4633168578147888, -0.21573518216609955, 0.18048524856567383, 0.1555400937795639, 0.2583601772785187, -0.5765985250473022, -0.7784517407417297, 0.13376767933368683, -0.44283154606819153, 0.10841763019561768, 0.4016436040401459, -0.008587319403886795, 0.31327155232429504, 0.3283480107784271, -0.14745250344276428], [0.28576529026031494, 0.19685399532318115, 0.04843484237790108, -0.1953406035900116, 0.20670399069786072, 0.3196244537830353, 0.30689501762390137, -0.037343017756938934, -0.17570139467716217, 0.025026598945260048, 0.33347561955451965, 0.14228078722953796, 0.05901823565363884, 0.2933853566646576, -0.2105253040790558, -0.1551411747932434, 0.29032227396965027, 0.337553471326828, -2.0329437255859375, 0.03494764864444733, 0.08810732513666153, 0.12698830664157867, -0.061619050800800323, 0.2103886604309082, -0.10429555177688599, 0.2554780840873718, 0.4032953679561615, 0.22600317001342773, -1.3801114559173584, 0.018880868330597878, 0.07637836784124374, 0.008969282731413841, 0.25360438227653503, -0.06412609666585922, -0.17712518572807312, 0.5431311130523682, -0.013071115128695965, -0.10571608692407608, 0.3986923396587372, -0.4964180290699005, -0.11370202898979187, -0.0840253233909607, -1.868420958518982, 0.152912899851799, 0.2727070450782776, 0.26310545206069946, 0.26860150694847107, 0.132687047123909, -0.05701785907149315, -0.5217854976654053, -0.13410751521587372, 0.29495689272880554, 0.4318345785140991, -0.04882187768816948, 0.38902777433395386, 0.2094539999961853, 0.15530864894390106, -1.9748374223709106, 0.30501118302345276, 0.15387850999832153, -0.6647756695747375, 0.3798547685146332, 0.1399250477552414, -0.07115726917982101], [0.41081222891807556, 0.01640179753303528, 0.4233925938606262, 0.3867584466934204, 0.2335198074579239, 0.4092150330543518, 0.2302635908126831, 0.02220895327627659, 0.012236221693456173, 0.15125872194766998, 0.15889841318130493, -0.31195932626724243, 0.26959228515625, 0.23135554790496826, 0.13760371506214142, -0.08104413747787476, 0.11677152663469315, 0.2543124854564667, -0.7876448035240173, 0.16874822974205017, 0.21015779674053192, -0.15571275353431702, 0.04886389523744583, -0.1502913385629654, 0.10600072145462036, -0.006842057220637798, 0.24703392386436462, 0.29047277569770813, -0.15230515599250793, 0.008490773849189281, 0.30046647787094116, 0.3561471998691559, 0.0930088609457016, 0.32899269461631775, 0.1921854019165039, 0.28239113092422485, 0.15907108783721924, 0.10047399252653122, 0.3502262830734253, 0.018386023119091988, 0.24426189064979553, 0.05479680001735687, -0.7246163487434387, 0.298193097114563, 0.18180455267429352, 0.3112063407897949, 0.22392792999744415, -1.0948914289474487, 0.27349036931991577, -0.18460065126419067, -0.01933523267507553, 0.07029616832733154, 0.06528278440237045, 0.11645341664552689, 0.325449138879776, 0.17641450464725494, -0.021072333678603172, -0.4300619661808014, 0.01920917257666588, 0.2884029746055603, 0.32209792733192444, -0.07966315746307373, 0.2976672053337097, -0.09799935668706894], [0.3216905891895294, 0.13359367847442627, 0.24281960725784302, 0.018764998763799667, -0.13875214755535126, 0.08412047475576401, -0.0026434799656271935, -0.08306881785392761, 0.05914939567446709, 0.19936485588550568, -0.21011124551296234, -0.14196480810642242, -0.15383169054985046, 0.20185430347919464, -0.12597133219242096, -0.20829612016677856, -0.16457651555538177, 0.26764699816703796, -0.2685711681842804, -0.226991206407547, 0.08363153040409088, -0.040756531059741974, 0.006782958749681711, -0.09344685077667236, 0.033503830432891846, 0.17816998064517975, 0.05853939801454544, 0.17430388927459717, 0.30371716618537903, -0.23492826521396637, -0.13338778913021088, 0.05895722284913063, -0.10700497031211853, -0.11630459129810333, 0.05234015733003616, -0.7313206195831299, 0.03362467885017395, 0.2031928151845932, -0.01037599053233862, 0.13272511959075928, -0.14636433124542236, -0.26825734972953796, -0.20533719658851624, 0.1605752557516098, -0.16362497210502625, -0.06631635129451752, 0.02444913238286972, 0.33681720495224, -0.21169617772102356, -1.364824652671814, -0.11404645442962646, 0.025104889646172523, -0.0885072872042656, -0.24345839023590088, -0.40623944997787476, -0.28194066882133484, 0.02287091128528118, 0.01265932247042656, -0.027358973398804665, 0.02510068565607071, 0.05665368214249611, 0.21378101408481598, 0.10413219034671783, -0.2641630172729492], [0.0803396925330162, -0.06456819176673889, 0.1842554658651352, 0.37022852897644043, -0.01817554235458374, 0.3245481252670288, 0.06634870171546936, -0.2313421666622162, -0.1789921671152115, -0.06992893666028976, 0.035977888852357864, -0.2599687874317169, 0.0008791744476184249, -0.027263998985290527, -0.07645457237958908, -0.05767631530761719, 0.23540163040161133, -0.08164921402931213, 0.39437136054039, 0.10057816654443741, -0.050996992737054825, 0.16691410541534424, -0.19911007583141327, -0.10678816586732864, -0.059445321559906006, -0.0325004905462265, -0.18646468222141266, 0.0870189443230629, -0.1736697405576706, -0.3069115877151489, -0.23941130936145782, -0.07323933392763138, -0.07571869343519211, 0.24917906522750854, 0.18289890885353088, -1.30376136302948, -0.0774477943778038, -0.28960078954696655, -1.4659202098846436, -0.18846870958805084, 0.24102863669395447, -0.06492123752832413, 0.19842880964279175, 0.01638985425233841, 0.24332153797149658, 0.19332611560821533, 0.2704351842403412, -0.07096242904663086, 0.016846150159835815, -0.3284132182598114, -0.013025372289121151, 0.059329163283109665, -2.6058833599090576, -1.04470956325531, 0.28093764185905457, 0.08890467137098312, 0.3158840835094452, 0.3737439811229706, -0.19223357737064362, -3.451221227645874, 0.32423844933509827, -0.04953543841838837, -0.2607383131980896, 0.03559671342372894], [0.12402157485485077, -0.06943424791097641, 0.07509084790945053, 0.3210255801677704, 0.22685222327709198, 0.27029308676719666, 0.19484740495681763, 0.40190643072128296, 0.023865869268774986, 0.004620563704520464, 0.27700719237327576, -0.049393441528081894, -0.20986118912696838, 0.40017545223236084, -0.15467025339603424, -0.11374759674072266, 0.022855523973703384, -0.04678373038768768, -0.8844678997993469, 0.18570230901241302, -0.05076361075043678, 0.10208457708358765, 0.08670960366725922, 0.13431496918201447, -0.24549514055252075, 0.18842746317386627, 0.1258348822593689, 0.2598656415939331, -0.9068125486373901, -0.10945115983486176, 0.17112796008586884, 0.3344959020614624, 0.09753340482711792, 0.11182603240013123, 0.23758526146411896, 0.3361246585845947, 0.1593133807182312, 0.022923903539776802, 0.018374279141426086, -0.19646039605140686, 0.05670126900076866, 0.12228058278560638, -0.7740417122840881, 0.16557495296001434, 0.24029575288295746, 0.27048659324645996, 0.08304166048765182, -0.5436394214630127, 0.07782221585512161, -0.0877223014831543, 0.04774170741438866, 0.18963903188705444, 0.11507441103458405, 0.08920429646968842, -0.07486587017774582, 0.4187067747116089, 0.39412856101989746, -0.8918492197990417, -0.0078093814663589, -0.15582703053951263, -0.008252072148025036, -0.05152176693081856, -0.0103212371468544, -0.46978527307510376], [0.13971729576587677, -0.006050560623407364, 0.02620038017630577, -0.01786619983613491, 0.03441350534558296, 0.06761366128921509, 0.3071497678756714, 0.2893224060535431, -0.25302693247795105, 0.2866278886795044, 0.2072349339723587, -0.18093499541282654, 0.03179168328642845, 0.11687583476305008, -0.11310052126646042, -0.15939414501190186, 0.1116090789437294, -0.001246067462489009, -1.4154585599899292, 0.11500059813261032, 0.036223869770765305, -0.1800374835729599, -0.21319891512393951, 0.14401189982891083, 0.025773346424102783, 0.03213107958436012, 0.21666541695594788, 0.21295025944709778, -0.8157727122306824, 0.1469065397977829, 0.14747299253940582, 0.18930284678936005, 0.14991982281208038, 0.31950974464416504, -0.1399831473827362, 0.3428739607334137, -0.00462351506575942, 0.056572917848825455, 0.3833473324775696, -0.6512225270271301, -0.14692187309265137, -0.07839225977659225, -1.847367763519287, 0.30280452966690063, 0.2693939805030823, 0.07152300328016281, 0.3332177996635437, -0.5884304046630859, -0.019751036539673805, 0.10259516537189484, -0.00035252634552307427, 0.13265839219093323, 0.3383703827857971, 0.2866000235080719, 0.1606616973876953, 0.07700703293085098, 0.16450923681259155, -1.7446876764297485, -0.09521854668855667, 0.14599141478538513, -0.1971525102853775, -0.13586927950382233, 0.23321370780467987, -0.4156755208969116], [0.44802793860435486, 0.012149732559919357, 0.20536872744560242, 0.21398334205150604, 0.07023394852876663, 0.24850131571292877, 0.16833826899528503, 0.18299850821495056, -0.2541026771068573, 0.10252885520458221, 0.18627379834651947, -0.19646495580673218, -0.1915530115365982, 0.18865704536437988, -0.17989255487918854, 0.031295180320739746, 0.20862801373004913, 0.23539185523986816, 0.2574211359024048, 0.33738571405410767, 0.2988165318965912, -0.045584920793771744, -0.2758403420448303, 0.4245459735393524, 0.1462538242340088, -0.19690358638763428, 0.1711248755455017, 0.22982394695281982, -0.7257275581359863, 0.27629125118255615, 0.14976251125335693, 0.037894655019044876, 0.19458375871181488, 0.08028867095708847, -0.09109864383935928, 0.1647179126739502, 0.30428504943847656, 0.15479815006256104, 0.4358605444431305, -0.21853362023830414, -0.18530365824699402, -0.03374834731221199, -0.22988584637641907, -0.11218398064374924, -0.07091459631919861, 0.2713684141635895, -0.021648796275258064, -0.16343334317207336, 0.23475223779678345, 0.5157526731491089, 0.07222187519073486, 0.07741837948560715, 0.4814964830875397, 0.18208608031272888, -0.2222800850868225, -1.1504038572311401, 0.25035274028778076, 0.005884785205125809, 0.10553450137376785, 0.24215811491012573, -0.1347668319940567, 0.016391849145293236, 0.4021220803260803, -0.009448421187698841], [0.3814903199672699, 0.4265637993812561, -0.045182861387729645, 0.4425158202648163, 0.07277543842792511, 0.3179866075515747, 0.027102293446660042, 0.2325165867805481, -0.24649053812026978, 0.0730586051940918, 0.11746151000261307, 0.12433423846960068, -0.1889876425266266, 0.25140082836151123, -0.27250292897224426, -0.24374240636825562, 0.28115591406822205, 0.08874188363552094, -0.9401566386222839, 0.05154172331094742, 0.05928107723593712, -0.18085059523582458, 0.1869012415409088, 0.05889356508851051, -0.2123529314994812, -0.0338713712990284, 0.13265079259872437, 0.18328003585338593, -0.6540209650993347, -0.25231799483299255, 0.1894482523202896, 0.32547688484191895, 0.2730919420719147, 0.33102405071258545, 0.16176840662956238, 0.14829140901565552, -0.0350077860057354, -0.0225701704621315, -0.13020409643650055, -0.6957617402076721, -0.27886471152305603, -0.4383814334869385, -0.6799800992012024, 0.376061350107193, 0.2396603375673294, 0.2776944637298584, 0.004490786697715521, 0.36534568667411804, 0.2956739366054535, -0.5217872262001038, 0.18910187482833862, 0.17848609387874603, 0.06232883781194687, 0.2503090500831604, 0.1866859644651413, 0.19726590812206268, 0.27993980050086975, -0.9019064903259277, 0.2811461389064789, 0.07723438739776611, -0.1317146271467209, 0.23654794692993164, 0.11074164509773254, -0.2173304557800293], [-2.808950424194336, -0.6983267068862915, -0.9912826418876648, 0.7776886820793152, -1.040643334388733, -1.319158911705017, -7.004208087921143, -2.054433822631836, -0.049247484654188156, -1.0185123682022095, -1.1956878900527954, 0.16199302673339844, -2.5430588722229004, -0.9018877744674683, 0.17461861670017242, 0.06733250617980957, -1.2584677934646606, -1.259210467338562, 1.1670536994934082, -0.8711663484573364, 0.07008547335863113, -0.2000337392091751, -1.61648690700531, -0.5978962182998657, -0.2349950075149536, -0.6969146132469177, -0.5933348536491394, -1.1440231800079346, 0.5334484577178955, -1.4646265506744385, -0.9671041965484619, -1.2423657178878784, -1.893341302871704, -1.0778851509094238, -1.3929821252822876, -0.5346169471740723, -1.386955976486206, -2.043712854385376, 0.22231288254261017, 0.2321641743183136, -0.9809159636497498, 0.7818911075592041, 1.7544130086898804, -0.9705429077148438, -1.1703747510910034, -1.2881968021392822, -0.7563169002532959, 0.6879228353500366, -0.8155449032783508, -0.6772703528404236, -0.1861182451248169, -0.6717099547386169, 0.10904467105865479, -0.2505747377872467, -0.9487322568893433, 0.5381381511688232, -1.27145516872406, 1.402238130569458, -0.9190289378166199, 0.37047094106674194, 0.125898540019989, -0.8055527210235596, -1.1588388681411743, -0.20774510502815247], [0.2304464727640152, -0.40695950388908386, -0.09845587611198425, -1.036159634590149, -0.09811580181121826, -0.40323692560195923, 0.062155578285455704, -0.39659661054611206, -0.24551980197429657, -0.49850955605506897, -0.40334147214889526, -0.10768838971853256, -0.4010104238986969, -0.28077560663223267, 0.038649771362543106, -0.1466280221939087, -0.20921263098716736, -0.45751142501831055, -0.7780214548110962, -0.35305947065353394, -0.037987593561410904, -0.00826021283864975, -0.3373284935951233, -0.1319696307182312, -0.12169557809829712, -0.2231697291135788, 0.21701562404632568, -0.3660067915916443, 0.08204220235347748, -0.13365735113620758, -0.1599418967962265, -0.25900954008102417, -0.33102932572364807, -0.41071411967277527, -0.4271073043346405, 0.2023329734802246, -0.10213513672351837, -0.12357887625694275, 0.7167434096336365, -0.3651699721813202, -0.20825332403182983, 0.12094510346651077, -1.383503794670105, -0.14679743349552155, -0.3690156638622284, -0.46629634499549866, -0.23131810128688812, -1.0871737003326416, -0.145957812666893, 0.787891685962677, -0.00644572451710701, -0.13054527342319489, 1.0448551177978516, 0.26223552227020264, -1.0939178466796875, 0.5583995580673218, -0.2821740210056305, -1.3659586906433105, -0.03007509745657444, 1.0466245412826538, -0.8101581335067749, -0.18779760599136353, -0.11748521775007248, 0.13588672876358032], [0.1843949258327484, -0.20762254297733307, -0.3190026879310608, 0.6093535423278809, -0.3995600640773773, -0.4125385284423828, 0.4134328365325928, -0.4900868237018585, -0.15793181955814362, -0.5256305932998657, 0.0033590432722121477, -0.2569795548915863, -0.16913574934005737, -0.31481149792671204, -0.11326169967651367, 0.006905257701873779, -0.35344037413597107, -0.25270524621009827, 0.468778520822525, -0.25149691104888916, -0.06183866038918495, -0.16541922092437744, -0.06285756826400757, 0.08189861476421356, 0.2227863073348999, -0.11172454804182053, 0.07963671535253525, 0.018970493227243423, -1.25253427028656, -0.7749793529510498, -0.3674493730068207, -0.12798668444156647, -0.375561386346817, -0.19173243641853333, -0.13928844034671783, -0.3954177796840668, -0.20011895895004272, -0.4685085415840149, 0.4177781045436859, -0.1868145912885666, -0.25259366631507874, 0.1541735678911209, 0.554721474647522, -0.2256907820701599, -0.12553979456424713, -0.07191812992095947, -0.2796100676059723, 0.24302689731121063, -0.2520204484462738, -1.1492335796356201, -0.14944684505462646, 0.03444983437657356, -0.7021870613098145, -0.4915144443511963, 0.135711207985878, -0.1811646670103073, -0.29073208570480347, 0.6022193431854248, -0.30400344729423523, -1.2306759357452393, 0.7846547365188599, 0.09115109592676163, -0.055213574320077896, 0.14923538267612457], [0.7619999051094055, -0.8250027894973755, -0.5851902961730957, -7.715418338775635, -0.648877739906311, -0.618242621421814, 0.3477238714694977, -0.14907848834991455, 0.06412917375564575, -0.4692678451538086, -0.2684290409088135, 0.11795651167631149, -0.9386720657348633, -0.5367975234985352, -0.2640349864959717, 0.0020939111709594727, -0.6070569753646851, -0.3395662009716034, 0.37878310680389404, -0.5674830079078674, -1.1458896398544312, -0.2206309288740158, -0.9739624261856079, -0.5756815075874329, 0.23278552293777466, -2.002554416656494, -0.7890063524246216, -0.5853632688522339, 0.14102528989315033, -1.1893271207809448, -0.6872061491012573, -0.8876169323921204, -0.15680940449237823, -0.6972227096557617, -0.5158202648162842, 0.0025817444548010826, -0.5931779146194458, 0.15368211269378662, 0.2270183563232422, 0.0832003727555275, -0.41029202938079834, 0.6312673687934875, -0.8084418773651123, -0.6899023056030273, -0.09373858571052551, -0.4430932402610779, -0.7694923877716064, 0.9849443435668945, -0.8109527230262756, 0.8155317902565002, -0.22886696457862854, -0.8885705471038818, 0.7501401901245117, 0.7007302641868591, 0.3925880491733551, 0.6442630887031555, -0.4994971454143524, 0.16937410831451416, -0.5740015506744385, 0.5003395080566406, -1.3817843198776245, -0.7396661043167114, -0.724963366985321, 0.047900304198265076], [-0.2654533088207245, 0.03674139082431793, 0.017018195241689682, 0.09627603739500046, -0.05426422134041786, 0.10190223902463913, -0.12511271238327026, 0.20590010285377502, -0.036635059863328934, 0.3009142279624939, -0.07058923691511154, -0.22618012130260468, -0.13202527165412903, 0.17141957581043243, -0.08007655292749405, -0.2206505537033081, -0.12801091372966766, 0.1746394783258438, 0.48962852358818054, 0.11688406020402908, -0.12071752548217773, -0.12964744865894318, 0.08724617213010788, 0.21120277047157288, -0.22070878744125366, -0.06402578204870224, 0.14938421547412872, 0.17620141804218292, 0.25555336475372314, 0.2199821174144745, 0.18168073892593384, 0.15441429615020752, 0.12242595851421356, 0.3063463866710663, 0.20352673530578613, -2.050431966781616, -0.15773850679397583, -0.30838486552238464, -2.0345089435577393, -0.07516925036907196, 0.2200632095336914, -0.07452182471752167, 0.3096548318862915, 0.0415298156440258, 0.06925897300243378, 0.29392966628074646, -0.04522807523608208, -0.7457293272018433, 0.18886086344718933, -0.19705720245838165, -0.274517685174942, 0.27301570773124695, -2.152616500854492, -1.5984565019607544, -0.14948387444019318, 0.041040483862161636, 0.16246680915355682, 0.18927621841430664, -0.026965811848640442, -2.0139787197113037, 0.4064280092716217, 0.055414412170648575, 0.02875351347029209, -0.24422240257263184], [0.4668616056442261, -0.31038281321525574, -0.1638927459716797, -0.5539311766624451, -0.0783025473356247, -0.23020994663238525, -0.10945478826761246, 0.037523940205574036, -0.08752267062664032, -0.11904547363519669, -0.325863242149353, 0.1241239681839943, 0.020079592242836952, -0.3478790819644928, 0.16946274042129517, -0.1477864384651184, -0.2456357181072235, -0.046157773584127426, 0.4187774658203125, -0.043752335011959076, -0.05079763010144234, 0.10628966987133026, -0.30055543780326843, -0.20430685579776764, 0.12462890148162842, 0.02292178012430668, 0.11871689558029175, 0.021077074110507965, -0.05764492601156235, -0.5399829745292664, -0.07066376507282257, -0.2016850858926773, -0.18517951667308807, -0.19121244549751282, 0.029409237205982208, -1.5358606576919556, -0.07100829482078552, 0.025659170001745224, 0.793044924736023, 0.1381509006023407, 0.12473791092634201, 0.134433776140213, 0.4106076657772064, -0.20228765904903412, -0.26476743817329407, -0.2565021514892578, -0.2590610384941101, 0.5683664083480835, 0.008773108944296837, -0.14157947897911072, -0.16141074895858765, -0.24866624176502228, 1.1502292156219482, 0.9493563175201416, 0.17094279825687408, 0.057289592921733856, -0.19628137350082397, 0.4263564944267273, -0.051972564309835434, 1.3116668462753296, -0.8469064235687256, -0.14977358281612396, -0.0327579528093338, -0.20483183860778809], [-0.069819375872612, 0.11111211776733398, 0.17873241007328033, 0.43042489886283875, 0.36467859148979187, 0.25753775238990784, 0.024606192484498024, 0.12636873126029968, -0.12674252688884735, 0.33842822909355164, 0.12433437258005142, -0.2032141536474228, 0.26581209897994995, 0.006184928584843874, -0.3001779615879059, 0.010920345783233643, 0.33241239190101624, 0.12156245112419128, 0.3847973048686981, 0.2710438370704651, -0.010502277873456478, -0.2600729763507843, 0.20574699342250824, -0.02586144208908081, -0.03964179754257202, 0.3798360824584961, 0.37539851665496826, 0.3455091416835785, -0.3132094740867615, 0.16193901002407074, -0.01837850920855999, -0.02785918116569519, -0.01370603684335947, 0.2675732374191284, 0.008283164352178574, -0.4930010437965393, 0.3235205411911011, 0.18968109786510468, -0.36697906255722046, -0.0869588702917099, 0.04773866757750511, -0.02994474209845066, 0.17442646622657776, 0.17788591980934143, 0.09097406268119812, 0.012842383235692978, 0.3987622857093811, 0.03031177632510662, -0.026544278487563133, -1.1681644916534424, 0.18008387088775635, 0.15536099672317505, -0.8615473508834839, -0.46720948815345764, 0.23420506715774536, -0.24656905233860016, -0.03942197933793068, 0.0016146537382155657, 0.32917994260787964, -0.6414545178413391, 0.19150011241436005, 0.4067896902561188, 0.3773350715637207, -0.15290775895118713], [0.4995019733905792, 0.33404338359832764, -0.00354745052754879, -0.20668058097362518, 0.17367273569107056, -0.15634660422801971, 0.46365636587142944, 0.03999568894505501, 0.06717678904533386, 0.030697086825966835, -0.12068674713373184, -0.09707504510879517, -0.177893728017807, 0.28295454382896423, -0.2267836630344391, -0.18377894163131714, -0.10798677057027817, 0.1122894138097763, -0.8004134297370911, 0.17663422226905823, 0.1192181333899498, -0.22299377620220184, -0.12860295176506042, -0.0504087395966053, -0.1584329605102539, 0.06649096310138702, -0.04136105999350548, -0.11631704121828079, 0.10065674781799316, 0.2243734747171402, 0.2950003147125244, 0.2968646287918091, -0.2081499993801117, 0.2228759527206421, -0.2580786347389221, 0.48418906331062317, -0.05816856026649475, -0.40220892429351807, 0.9468016028404236, -0.17012126743793488, -0.12842129170894623, -0.18830883502960205, -0.5784071087837219, 0.04586654528975487, -0.1711817979812622, 0.09435901790857315, -0.014345305040478706, -0.18263408541679382, 0.10344206541776657, 0.0696495845913887, -0.19927126169204712, 0.007371710613369942, 0.6255567669868469, 0.3420535624027252, 0.24737681448459625, -0.14147387444972992, 0.20411904156208038, -1.3811922073364258, -0.063348688185215, 0.8565427660942078, -0.6621723175048828, 0.15755392611026764, 0.26256778836250305, 0.11662957817316055], [-0.1967623084783554, 0.12017067521810532, 0.15698404610157013, 0.04289218410849571, 0.2937891185283661, -0.011530878953635693, 0.021180106326937675, -0.02527482993900776, -0.0709444060921669, -0.07229302078485489, 0.10431427508592606, 0.06987353414297104, 0.04274313524365425, 0.32703420519828796, 0.1104782372713089, -0.2389470338821411, 0.13683255016803741, 0.22112613916397095, 0.45068392157554626, 0.20200683176517487, -0.13045382499694824, -0.2327587604522705, 0.14014099538326263, 0.258684366941452, -0.09525823593139648, 0.09645083546638489, 0.1724235713481903, 0.11603793501853943, -0.059034038335084915, 0.09972531348466873, 0.22233888506889343, 0.21382077038288116, -0.05217478796839714, 0.007483096327632666, 0.2930988371372223, -1.5283825397491455, 0.3657849431037903, 0.258457750082016, -2.379838466644287, 0.1733555793762207, -0.11649494618177414, -0.21902208030223846, 0.4568665027618408, 0.25070732831954956, 0.37765610218048096, -0.018123548477888107, 0.3890049159526825, -0.13101738691329956, 0.04690786451101303, -0.1882970631122589, 0.05983870103955269, 0.03748076781630516, -2.646075487136841, -2.17482852935791, -0.30772262811660767, -0.12825535237789154, 0.2033671736717224, 0.4408321678638458, 0.015554065816104412, -2.3255035877227783, 0.282686710357666, 0.05223843455314636, 0.032581426203250885, 0.08316312730312347], [-1.1815686225891113, -0.08142279088497162, -0.18667154014110565, -0.433610200881958, 0.05096162110567093, -0.06309327483177185, -1.24433434009552, -0.4776313602924347, -0.1034613698720932, 0.13520264625549316, -0.2888617217540741, 0.023139849305152893, -0.20956432819366455, -0.2970007061958313, -0.10383263975381851, -0.09007585048675537, -0.11631756275892258, -0.10542672872543335, 1.0458385944366455, -0.36375465989112854, -0.5279765129089355, -0.2447216510772705, 0.019967172294855118, -0.32973048090934753, -0.16880744695663452, -0.03244714438915253, -0.13410980999469757, -0.2920641303062439, -0.8432638645172119, -0.4192032217979431, -0.5054802298545837, -0.37231743335723877, -0.08122414350509644, 0.1420716643333435, -0.13773593306541443, -1.071150541305542, -0.5382005572319031, 0.24285225570201874, 0.06116732209920883, 0.13801966607570648, -0.1076807975769043, 0.32766130566596985, 1.0096203088760376, 0.19437246024608612, -0.01493578590452671, 0.15794691443443298, -0.29458415508270264, 0.3868320882320404, -0.0210055410861969, -0.6376462578773499, -0.12637688219547272, -0.006765156053006649, 0.027677815407514572, -0.1514504998922348, -0.10860943049192429, -0.175385981798172, 0.06895361095666885, 1.0110386610031128, -0.3533705472946167, -0.09714669734239578, 0.049225423485040665, -0.0604524239897728, -0.5899002552032471, -0.03795504570007324], [0.31918737292289734, -0.08436300605535507, -0.30951541662216187, 0.12273146212100983, -0.2521072030067444, -0.07425080239772797, 0.0737261101603508, -0.24322520196437836, -0.0011540394043549895, -0.1860826313495636, -0.24915005266666412, -0.02783304639160633, -0.3798627257347107, -0.2565235495567322, 0.14696089923381805, -0.07535499334335327, -0.158376544713974, -0.0379861444234848, -0.4067729413509369, -0.014432108029723167, -0.7260807752609253, -0.11619427055120468, -0.4663535952568054, 0.2085050791501999, -0.1907222867012024, -0.2501737177371979, 0.03904062137007713, 0.07735422998666763, 0.2732982039451599, -0.06261865794658661, -0.029231805354356766, 0.10394088923931122, -0.08172018080949783, -0.003951170481741428, -0.11683531105518341, -0.08777323365211487, -0.3048568069934845, -0.0484585277736187, 0.5620787143707275, -0.00895897950977087, -0.42978498339653015, -0.3553943634033203, -0.9419350624084473, -0.2950470447540283, -0.009196923114359379, -0.3051096498966217, -0.282358855009079, -0.19213899970054626, -0.2317018061876297, -0.15821002423763275, -0.3590506911277771, -0.03019481897354126, 0.6469094753265381, 0.3086228370666504, -0.40728384256362915, -0.09958194196224213, -0.33330127596855164, -0.6130474805831909, 0.15586993098258972, 0.5014497637748718, 0.06259147077798843, 0.0335165299475193, -0.07485371083021164, -0.33270275592803955], [0.4319838583469391, 0.3531560003757477, -0.07652902603149414, 0.26963552832603455, 0.32353317737579346, 0.06646335870027542, 0.3030659854412079, 0.010548758320510387, -0.28510135412216187, 0.04225553944706917, 0.2972876727581024, 0.020425565540790558, -0.022069036960601807, -0.10494223237037659, -0.21714377403259277, -0.06160557270050049, 0.28970298171043396, 0.17427222430706024, -0.7955191731452942, -0.13074995577335358, -0.19069558382034302, -0.03470812737941742, -0.14631658792495728, -0.23005545139312744, -0.064261794090271, 0.10021961480379105, -0.10822072625160217, 0.044988106936216354, -0.4420950710773468, -0.08550195395946503, -0.05953669175505638, 0.3211462199687958, 0.15941931307315826, 0.23727139830589294, 0.23557184636592865, 0.2411714494228363, 0.3176305890083313, 0.30171433091163635, 0.4773317575454712, -0.0839078351855278, 0.23194758594036102, 0.0888349860906601, -0.9901674389839172, 0.002809973666444421, -0.0033090761862695217, -0.0912717878818512, 0.022487953305244446, -0.5036998391151428, 0.12787698209285736, -0.34385615587234497, -0.15808548033237457, 0.2378585785627365, 0.33404964208602905, 0.0029214161913841963, 0.21108593046665192, -0.08843264728784561, 0.16158346831798553, -0.4597274661064148, 0.10247523337602615, 0.4618820548057556, 0.1544845551252365, 0.13486789166927338, 0.2449224889278412, -0.08093954622745514], [0.12903930246829987, 0.026968391612172127, 0.20183508098125458, 0.1473964899778366, 0.41187477111816406, 0.014192339964210987, 0.13472221791744232, 0.3433184027671814, 0.05928954854607582, 0.17291156947612762, -0.09240937232971191, -0.10266470164060593, 0.24349159002304077, 0.3894336521625519, 0.016409462317824364, 0.18448328971862793, 0.24924544990062714, 0.0821392685174942, 0.5250660181045532, 0.06882059574127197, 0.04397059977054596, -0.04267154261469841, 0.3483003079891205, -0.04866459220647812, 0.05758267641067505, 0.2883918583393097, 0.1894100457429886, 0.0442422479391098, -0.1667199283838272, 0.1977129429578781, 0.12524119019508362, 0.3384658396244049, 0.22928637266159058, 0.19893740117549896, 0.20281687378883362, -0.4742392599582672, -0.05642855912446976, 0.0937732681632042, -0.8016436100006104, 0.17222675681114197, -0.08209364116191864, -0.17671769857406616, 0.3423498570919037, 0.16450291872024536, -0.029894251376390457, -0.07098071277141571, 0.359292596578598, -0.0688338652253151, 0.19311000406742096, -0.5641069412231445, 0.013273831456899643, 0.1507016271352768, -0.7011332511901855, -0.9844928979873657, -0.3108920753002167, -0.286296010017395, 0.2347700297832489, 0.2091923952102661, 0.03006771206855774, -0.8859671950340271, 0.04840006306767464, -0.01888502761721611, 0.046184197068214417, -0.10301992297172546], [0.08987198770046234, -0.10529594868421555, 0.17085979878902435, 0.11518485844135284, 0.3029320240020752, 0.029663655906915665, 0.07246943563222885, 0.09509272873401642, 0.005736032035201788, -0.08088720589876175, -0.13914833962917328, 0.11295602470636368, -0.029124153777956963, 0.112386055290699, 0.13064676523208618, 0.053771793842315674, 0.09716988354921341, -0.02672480419278145, 0.3309963643550873, 0.2169579416513443, -0.07900387793779373, 0.023352256044745445, 0.21613524854183197, -0.117979034781456, 0.10879814624786377, -0.16990940272808075, -0.037771835923194885, -0.09594108164310455, 0.029893426224589348, 0.08706916123628616, -0.0205075703561306, -0.12391622364521027, -0.07662288099527359, 0.13756348192691803, -0.14095228910446167, -0.47453269362449646, 0.35241228342056274, -0.18751434981822968, -0.9300103783607483, -0.0866403579711914, -0.014862364158034325, -0.3767307698726654, -0.04752300679683685, 0.33920395374298096, -0.03702275827527046, 0.15373767912387848, 0.16433727741241455, -0.07928039133548737, -0.16687873005867004, -1.1655857563018799, -0.2643607556819916, 0.20484799146652222, -0.868821382522583, -0.3444787263870239, 0.08892007172107697, -0.24516457319259644, 0.005245227366685867, 0.6262586712837219, -0.1126340925693512, -1.02168607711792, 0.5194226503372192, 0.1507091224193573, -0.14867016673088074, -0.12086576968431473], [0.4999334216117859, 0.04710090160369873, 0.18771904706954956, 0.15889696776866913, 0.10561030358076096, 0.3318707346916199, 0.10926063358783722, 0.051155541092157364, -0.16414332389831543, -0.17523005604743958, 0.11182132363319397, 0.11951571702957153, 0.2007526159286499, 0.23286351561546326, -0.05081534385681152, 0.14415353536605835, 0.2053411602973938, 0.2651746869087219, -0.47014549374580383, 0.24058789014816284, 0.11512336879968643, -0.17905357480049133, 0.06852419674396515, 0.05936652794480324, -0.09928959608078003, 0.09894928336143494, -0.005324332509189844, -0.16983802616596222, 0.040694139897823334, 0.05610230565071106, -0.08719188719987869, -0.08022911846637726, -0.07671336084604263, 0.12710654735565186, 0.022348759695887566, -0.34353330731391907, -0.04384366422891617, 0.11076115071773529, 0.18400102853775024, -0.24960078299045563, 0.10436981171369553, 0.22174163162708282, -0.6465063095092773, -0.1563156098127365, 0.017042988911271095, -0.1156919077038765, 0.003970570396631956, -0.9626320600509644, -0.11988162249326706, 0.44913163781166077, -0.19874730706214905, 0.14862802624702454, 0.17399224638938904, -1.2370604276657104, -0.3674027621746063, -1.0963387489318848, 0.008593948557972908, -0.6091822385787964, 0.3530290126800537, 0.48148688673973083, -0.018965480849146843, -0.20702409744262695, -0.1137915849685669, 0.11520495265722275], [-0.24146400392055511, -0.06613446772098541, 0.05269939452409744, 0.5644409656524658, 0.10480703413486481, -0.24934172630310059, -0.25544631481170654, 0.01512637548148632, -0.02359587885439396, 0.013437910005450249, -0.025418931618332863, 0.035232897847890854, -0.2665543854236603, -0.04745127260684967, -0.03282805159687996, -0.14876681566238403, -0.004974828101694584, -0.15921132266521454, 0.10850678384304047, -0.1016615480184555, 0.3683881461620331, 0.16400237381458282, -0.2692972719669342, -0.26687198877334595, 0.2103237509727478, -0.3733251690864563, -0.2689417898654938, -0.11367888748645782, -0.42333266139030457, 0.2220592051744461, -0.4699628949165344, -0.3927188515663147, -0.14064763486385345, 0.03927838057279587, 0.1523331254720688, -0.78205406665802, 0.00047182056005112827, -0.4798685610294342, -0.5969671607017517, -0.20596551895141602, 0.08469806611537933, -0.1915249079465866, 0.7308534979820251, 0.16843490302562714, 0.03845377638936043, 0.09187882393598557, -0.011300581507384777, 0.09335235506296158, 0.07824941724538803, -0.4781472980976105, 0.13706441223621368, -0.25171521306037903, -1.2624225616455078, -0.7443791627883911, 0.6823856830596924, 0.17848195135593414, 0.026999687775969505, 0.3136064410209656, -0.10590426623821259, -1.3881865739822388, -0.14915719628334045, 0.00420411117374897, -0.2639152705669403, -0.015292128548026085], [0.10372108966112137, 0.1979537308216095, 0.21614688634872437, 0.4322456121444702, 0.05762406438589096, -0.023948360234498978, -0.29616501927375793, -0.07295157760381699, -0.25419721007347107, 0.1648997664451599, 0.18428249657154083, -0.1116277351975441, 0.3627341687679291, 0.02042623609304428, -0.1535247266292572, 0.19174575805664062, -0.0506506972014904, 0.29279083013534546, 0.798350989818573, -0.1243361085653305, -0.11032658815383911, -0.012062480673193932, 0.4141770005226135, 0.07942919433116913, -0.14114117622375488, 0.07239043712615967, 0.05912432447075844, -0.1348928064107895, 0.028113482519984245, -0.12080058455467224, 0.06590646505355835, -0.06990595906972885, 0.1702958196401596, -0.1202860027551651, 0.12172256410121918, 0.014284824952483177, -0.053632091730833054, -0.0764138251543045, 0.03843015059828758, -0.22677116096019745, 0.25676602125167847, 0.07032449543476105, 0.4255998730659485, -0.08620984852313995, 0.32910630106925964, -0.08912652730941772, 0.1738709956407547, 0.5299115777015686, 0.08705197274684906, -0.629744291305542, 0.20774999260902405, 0.11769925802946091, 0.09828715771436691, -0.5226911902427673, 0.12357880920171738, -0.19771574437618256, -0.10553046315908432, 0.6728709936141968, 0.12149678170681, 0.2564859986305237, 0.37093785405158997, -0.19496318697929382, -0.155865877866745, -0.05046926066279411], [-2.489640712738037, -0.3658287823200226, -0.29333770275115967, -0.590916633605957, -0.38832396268844604, -0.18319523334503174, -2.0972583293914795, -0.36615797877311707, 0.12282982468605042, -0.283152312040329, -0.1251269280910492, 0.14228302240371704, -0.16712702810764313, -0.44772693514823914, 0.10872294008731842, -0.12160718441009521, -0.3404144048690796, -0.21383769810199738, 0.6808353066444397, -0.3512105345726013, -1.0839520692825317, -0.1616116166114807, -0.2335488498210907, -0.5552987456321716, -0.1718209981918335, -0.30219700932502747, -0.5396363139152527, -0.0700991079211235, 0.770234227180481, -0.12249328196048737, -0.6856297850608826, -0.5282484292984009, -0.42036035656929016, -0.4015865623950958, -0.13771988451480865, -1.6680872440338135, -0.22338220477104187, 0.010115967132151127, 0.4341292679309845, -0.013758700340986252, -0.017447704449295998, 0.3831965923309326, 0.752471387386322, -0.24873550236225128, 0.10462549328804016, 0.039510082453489304, -0.26665398478507996, -0.4368511736392975, -0.26161229610443115, 0.7895545959472656, -0.10412921756505966, -0.40222984552383423, 0.016811717301607132, -0.0882677286863327, -0.44363805651664734, -0.18530800938606262, -0.28764334321022034, 0.4466036856174469, -0.411077082157135, 0.19013962149620056, 0.22090654075145721, -0.328156054019928, -0.29829564690589905, -0.3452284336090088], [0.31191322207450867, 0.09020614624023438, 0.0521179623901844, 0.11896152794361115, 0.31988975405693054, 0.04158666357398033, 0.4672601819038391, 0.22717875242233276, -0.12550798058509827, 0.15868860483169556, -0.03563406690955162, -0.03524508327245712, 0.3322088420391083, 0.17318058013916016, -0.30691495537757874, -0.012384355068206787, 0.041741810739040375, 0.11370445787906647, -0.11946927011013031, 0.21373391151428223, 0.05107647925615311, -0.11102966964244843, 0.23375923931598663, 0.05672888085246086, 0.043855905532836914, 0.09687741100788116, 0.2741442620754242, 0.3099673092365265, 0.10768304020166397, 0.38037100434303284, -0.045023415237665176, 0.04174809530377388, 0.19882149994373322, 0.2519882023334503, 0.14587807655334473, 0.0934334248304367, 0.34971681237220764, 0.06551475077867508, 0.25436103343963623, -0.14801360666751862, -0.0699663758277893, -0.3134537637233734, -0.3946317732334137, 0.2882356345653534, 0.3731049597263336, 0.153670534491539, 0.15211471915245056, -2.018535614013672, 0.3388175368309021, 0.11983530223369598, -0.2757585346698761, 0.32679277658462524, 0.08522724360227585, -0.0220212209969759, 0.14400330185890198, 0.06871499121189117, 0.043481990694999695, -0.2586013674736023, 0.06346471607685089, -0.07284749299287796, 0.27581945061683655, 0.031632814556360245, 0.0389564223587513, 0.0940757617354393], [0.3747302293777466, 0.055546097457408905, 0.002574712038040161, 0.06428453326225281, 0.23242555558681488, -0.0855603963136673, 0.4882965087890625, 0.03283395990729332, -0.059257473796606064, -0.14429831504821777, -0.0953204408288002, -0.016496481373906136, -0.11487574130296707, 0.10147324949502945, -0.10058771073818207, -0.14653939008712769, 0.23236115276813507, 0.27889278531074524, 0.13327710330486298, -0.03085770457983017, 0.004110283218324184, -0.2101680338382721, 0.12387432157993317, 0.22564956545829773, -0.10639721155166626, 0.38712236285209656, 0.08743022382259369, -0.02541111223399639, -0.10176750272512436, -0.12013939023017883, 0.25096622109413147, 0.10777530819177628, 0.06890840828418732, 0.21960218250751495, -0.17799562215805054, 0.1820431798696518, 0.01135911513119936, 0.1919766366481781, 0.011485254392027855, 0.18292336165905, 0.28107520937919617, -0.09600753337144852, -0.06583947688341141, 0.15797124803066254, 0.21874061226844788, -0.15328194200992584, 0.27266591787338257, -1.7419811487197876, -0.14575836062431335, 0.20136526226997375, 0.12697955965995789, 0.194457545876503, 0.001468174858018756, -0.1660395860671997, -0.10184599459171295, 0.4223047196865082, 0.06499791145324707, -0.4959396719932556, 0.08095043152570724, -0.08963519334793091, 0.2392624467611313, 0.3435910940170288, 0.3393145203590393, 0.11181619763374329], [0.12854494154453278, 0.24385398626327515, 0.1700226217508316, 0.020120713859796524, -0.07061327993869781, 0.18932414054870605, 0.06294777244329453, 0.2232591211795807, 0.1331452578306198, 0.011595206335186958, -0.010047654621303082, -0.06188539043068886, -0.1543872356414795, -0.0300332922488451, 0.1237078607082367, -0.20230013132095337, 0.04769434779882431, 0.10201852768659592, -0.7709041237831116, -0.08732648938894272, -0.08598779141902924, -0.0662979930639267, 0.2134176343679428, 0.2318734973669052, -0.16910016536712646, -0.19927231967449188, -0.10791346430778503, 0.1680407077074051, -0.31273752450942993, -0.24126653373241425, 0.05387888476252556, 0.1738157421350479, 0.20765277743339539, 0.30844658613204956, 0.10887788981199265, 0.04145928472280502, 0.3006596267223358, -0.06176228076219559, 0.1366492658853531, -0.21889378130435944, -0.09635361284017563, 0.013132059015333652, -0.7981163859367371, -0.13563962280750275, 0.2737772464752197, -0.11519456654787064, 0.2634762227535248, -0.44512248039245605, 0.06842733174562454, -0.14999784529209137, -0.023834198713302612, -0.001480870763771236, -0.10833178460597992, 0.12625591456890106, 0.10396061092615128, 0.042049482464790344, -0.07832925021648407, -0.24025887250900269, -0.12595288455486298, -0.0022938235197216272, 0.36840441823005676, 0.32350149750709534, 0.1405402570962906, 0.021399125456809998]], "layer2_bias": [0.1290399730205536, 0.4203948974609375, 0.3774768114089966, 0.027286026626825333, 0.407806932926178, 0.3983798027038574, 0.12408141046762466, 0.41523897647857666, -0.04230488836765289, 0.3549444377422333, 0.34291261434555054, -0.07395004481077194, 0.3674091696739197, 0.4004737436771393, -0.05579496920108795, 0.0, 0.3816739022731781, 0.36586636304855347, 0.027450747787952423, 0.36190056800842285, 0.16801898181438446, -0.05482583865523338, 0.39085859060287476, 0.30324092507362366, 0.0, 0.3181943893432617, 0.2936181426048279, 0.38454633951187134, -0.21434016525745392, 0.23743084073066711, 0.33134177327156067, 0.37458017468452454, 0.39394018054008484, 0.37653225660324097, 0.33717042207717896, 0.17542634904384613, 0.42517927289009094, 0.25838133692741394, 0.017618414014577866, -0.06849685311317444, 0.29370835423469543, -0.28394025564193726, -0.21502746641635895, 0.369293749332428, 0.34117594361305237, 0.3478439450263977, 0.39803972840309143, -0.23505903780460358, 0.2562819719314575, -0.38662484288215637, -0.0654524564743042, 0.3079921007156372, -0.10894816368818283, -0.04757843166589737, -0.03375596925616264, 0.061316683888435364, 0.40014737844467163, -0.12015851587057114, 0.304529070854187, -0.018863080069422722, 0.034975096583366394, 0.38790464401245117, 0.38837820291519165, -0.013431360945105553], "layer3_weight": [[-0.6352751851081848, -0.6057402491569519], [0.42881715297698975, 0.23806346952915192], [0.2886098325252533, 0.40721485018730164], [0.02478216215968132, -0.7789406776428223], [0.3942387104034424, 0.36854287981987], [0.312747597694397, 0.4035205543041229], [-0.8166377544403076, -0.04595896974205971], [0.3167109191417694, 0.4292759299278259], [-0.1437845528125763, -0.02049129270017147], [0.17500033974647522, 0.21760857105255127], [0.20870240032672882, 0.2469668686389923], [-0.12489356845617294, 0.06757213175296783], [0.24994738399982452, 0.45584455132484436], [0.43200787901878357, 0.38748469948768616], [-0.2083774209022522, 0.0063543496653437614], [-0.10080014169216156, 0.223100483417511], [0.2436801791191101, 0.2604123055934906], [0.24366669356822968, 0.35585013031959534], [0.12169412523508072, -1.8225511312484741], [0.24600563943386078, 0.19697941839694977], [0.009212285280227661, -0.05711214989423752], [-0.24015238881111145, 0.28771141171455383], [0.33969905972480774, 0.441215842962265], [0.2508240044116974, 0.08844728767871857], [0.06502547860145569, -0.24543941020965576], [0.23319585621356964, 0.13788670301437378], [0.3093380331993103, 0.07183528691530228], [0.30382633209228516, 0.3479515612125397], [-0.44249671697616577, -1.0747666358947754], [0.39805224537849426, 0.3314491808414459], [0.38099682331085205, 0.1610492765903473], [0.3409292995929718, 0.23369640111923218], [0.1995624154806137, 0.30813613533973694], [0.35828718543052673, 0.43264445662498474], [0.16510780155658722, 0.2987564206123352], [-1.5325700044631958, 0.668190598487854], [0.38152217864990234, 0.4054540991783142], [0.06662707030773163, 0.36485540866851807], [-2.1487314701080322, -0.625659167766571], [-0.2231195867061615, -0.03955341875553131], [0.09419042617082596, 0.2033119797706604], [-0.3036293089389801, -0.05441582202911377], [-2.403636932373047, 0.6782217621803284], [0.30406999588012695, 0.35381755232810974], [0.2187822312116623, 0.3843614459037781], [0.17879827320575714, 0.22675786912441254], [0.467981219291687, 0.4226512014865875], [-1.4374616146087646, -1.3849095106124878], [0.18911071121692657, 0.1114562526345253], [-1.339002251625061, -0.9477583169937134], [-0.10156363248825073, -0.08276892453432083], [0.354223370552063, 0.11634906381368637], [-0.3831270635128021, -1.9256588220596313], [0.9865021109580994, -0.6866435408592224], [-0.25265175104141235, 0.09076686948537827], [0.05348413810133934, 0.3822169601917267], [0.3466300964355469, 0.43011274933815], [-1.3806225061416626, -0.7614883184432983], [0.2159411758184433, 0.0778597816824913], [-0.6887766718864441, -1.7400437593460083], [-0.5092846155166626, -0.41758206486701965], [0.41228237748146057, 0.26058632135391235], [0.4308859407901764, 0.24939236044883728], [-0.2445758581161499, 0.253599613904953]], "layer3_bias": [0.3591599464416504, 0.35393139719963074]}