{"layer1_weight": [[0.2195274382829666, 0.07451415807008743, 0.2770114243030548, -0.8113948106765747, 0.017113301903009415, 0.35294970870018005, -0.7480905652046204, -0.062130384147167206, 0.011938768438994884, 0.07182499021291733, -0.4454789459705353, -0.03149294853210449, 0.40061265230178833, -0.29325172305107117, -0.7354459166526794, 0.11110060662031174, -0.8566213846206665, 0.12694327533245087, -0.4841747581958771, 0.13663747906684875, -0.3800276517868042, 0.296415776014328, 0.13670748472213745, 0.2088245302438736, 0.280862033367157, 0.10321284830570221, -0.6150972247123718, -0.24582235515117645, 0.4521738588809967, 0.31981927156448364, 0.16474755108356476, 0.07800246775150299], [0.30098068714141846, -0.2005644589662552, 0.2651655673980713, 0.49489888548851013, 0.15732821822166443, -0.3356918692588806, 0.7037286758422852, 0.14459392428398132, 0.016635987907648087, 0.02706180512905121, 0.20271694660186768, -0.009285734966397285, -0.0514187254011631, 0.3946136236190796, 0.37972667813301086, 0.010088997893035412, -0.0023374557495117188, -0.25419315695762634, 0.4709450602531433, -0.11332331597805023, 0.3367408514022827, -0.4239491820335388, -0.03000807762145996, -0.26954713463783264, -0.2766615152359009, 0.24366575479507446, 0.5497393608093262, -0.32649320363998413, 0.1492878794670105, -0.13494271039962769, 0.09894325584173203, 0.02437455952167511], [0.09732463210821152, -0.6554877758026123, 0.026592958718538284, 0.9731003642082214, 0.03626703843474388, -0.7129030227661133, -0.22450608015060425, -0.007559094578027725, 0.2377312183380127, 0.3344571590423584, 0.5146617889404297, -1.6424832344055176, 1.1733553409576416, -0.4698868989944458, 0.838274359703064, -0.6142811179161072, 0.9305777549743652, -0.09257207810878754, 0.8703922033309937, -0.7947732210159302, -1.1461889743804932, -0.19813354313373566, 0.20793043076992035, -0.3076985776424408, -0.8889955878257751, 0.878425657749176, 0.8409545421600342, -1.3929429054260254, -1.0797356367111206, 0.16317127645015717, 0.12465228885412216, -0.05714864656329155], [0.2067333310842514, -0.0904846340417862, 0.39650338888168335, 0.2882212698459625, 0.23801633715629578, 0.023487070575356483, -0.4080565869808197, 0.30156856775283813, 0.36797088384628296, 0.027475222945213318, 0.22874929010868073, -0.24702376127243042, -0.005539660807698965, 0.1295754313468933, 0.5969332456588745, -0.35855138301849365, 0.06916485726833344, -0.24597887694835663, 0.03578125312924385, -0.31582093238830566, -0.35861265659332275, -0.0018202107166871428, 0.1168285384774208, -0.26154467463493347, -0.006143799051642418, -0.3379895091056824, -0.2504728138446808, -0.07312770187854767, -0.003640407230705023, -0.15463358163833618, -0.14640158414840698, 0.18541546165943146]], "layer1_bias": [0.2041206955909729, 0.35994473099708557, 0.23188912868499756, 0.499512255191803, 0.34659451246261597, 0.10835832357406616, 0.29084011912345886, 0.33876359462738037, 0.32553279399871826, 0.05388487130403519, 0.3035255968570709, -0.3233140707015991, 0.12723511457443237, 0.15213482081890106, -0.33315831422805786, 0.4149671494960785, -0.1230287104845047, 0.33541494607925415, 0.25354355573654175, 0.41780295968055725, -0.03980635851621628, 0.0336519330739975, 0.2508181035518646, 0.3419646620750427, 0.21034084260463715, 0.04266064614057541, -0.03111344575881958, 0.007086991798132658, -0.32316410541534424, 0.3284035921096802, 0.32132405042648315, 0.28637534379959106], "layer2_weight": [[0.5716992616653442, 0.04743074253201485, -0.05868013948202133, 0.3944242298603058, 0.31004226207733154, -0.040566928684711456, 0.23213747143745422, 0.012824851088225842, 0.1857772320508957, 0.38311317563056946, 0.34038057923316956, -0.21170508861541748, 0.15235961973667145, 0.010956686921417713, 0.19044125080108643, -0.23172080516815186, 0.4250468313694, 0.393363893032074, -0.4105665683746338, 0.410280704498291, 0.19878274202346802, 0.1097690537571907, 0.034260883927345276, 0.2857619822025299, -0.12350565195083618, -0.004233021754771471, -0.012774478644132614, 0.06403949111700058, 0.13657066226005554, 0.11472608894109726, 0.3069985508918762, 0.3845784366130829, 0.25091487169265747, 0.07076683640480042, 0.23577246069908142, 0.06217016279697418, 0.2815231680870056, 0.18810752034187317, 0.19701384007930756, -0.06885332614183426, -0.08759559690952301, -0.13981013000011444, -0.09425068646669388, 0.1938781589269638, 0.06477269530296326, 0.23725643754005432, 0.17193226516246796, -0.3040865659713745, 0.34681233763694763, 0.270430326461792, -0.3433540165424347, -0.035781923681497574, 0.28051578998565674, 0.01733877882361412, -0.680774450302124, -1.4966697692871094, 0.2966453731060028, -0.31701409816741943, 0.3674357235431671, 0.16912731528282166, 0.29697227478027344, 0.31732144951820374, 0.4257408082485199, -0.21115988492965698], [-0.6153316497802734, -0.08575998991727829, 0.27439239621162415, 0.4283892512321472, 0.276908278465271, 0.060501791536808014, -0.09702766686677933, 0.42251694202423096, -0.26392558217048645, 0.3875340521335602, 0.05167986825108528, -0.284664511680603, 0.23355600237846375, 0.06524365395307541, -0.07533826678991318, 0.1505412459373474, -0.05865860357880592, 0.014333656057715416, 0.6792984008789062, 0.25184884667396545, -0.07950255274772644, -0.11423404514789581, -0.04627612233161926, 0.2341996133327484, 0.07392823696136475, -0.07986132055521011, -0.1425410509109497, 0.19337855279445648, 0.04903417080640793, -0.035211242735385895, 0.328901082277298, 0.16624365746974945, -0.13822658360004425, -0.011566182598471642, 0.06706483662128448, -1.0231654644012451, 0.2087325155735016, 0.2766747772693634, -0.7425698041915894, -0.09427754580974579, 0.1366797387599945, -0.15757466852664948, 0.3241370618343353, 0.0482657328248024, 0.23972970247268677, -0.10872044414281845, 0.019519641995429993, 0.21867479383945465, 0.25672534108161926, -0.5399420261383057, -0.00145035982131958, 0.08825448900461197, -1.2118935585021973, 0.0006898110150359571, 0.14668911695480347, -0.2696109712123871, 0.3730059266090393, 0.635929524898529, 0.06913654506206512, -1.125828504562378, 0.6509484648704529, 0.20137518644332886, 0.3001148998737335, -0.13397899270057678], [0.14310051500797272, 0.38148024678230286, 0.23657618463039398, 0.4302840232849121, -0.0839201807975769, 0.2948051691055298, 0.29831939935684204, -0.01182212308049202, 0.092943474650383, 0.04103429615497589, 0.283918559551239, 0.10976331681013107, 0.10278577357530594, 0.2367125153541565, -0.2583901286125183, -0.07839906215667725, 0.14232617616653442, 0.32420018315315247, -1.1075022220611572, -0.06009524688124657, 0.0013835624558851123, 0.15150247514247894, -0.05225605517625809, 0.11586284637451172, 0.1455683708190918, -0.09240101277828217, 0.13460353016853333, 0.23276616632938385, 0.10838165879249573, -0.03723135218024254, 0.12663695216178894, 0.028875241056084633, 0.25110822916030884, 0.13298718631267548, 0.13599757850170135, 0.2591872811317444, 0.27858173847198486, 0.10106087476015091, 0.4029024839401245, -0.3706868886947632, -0.07695812731981277, 0.010335738770663738, -0.28332892060279846, 0.02933667041361332, 0.20417794585227966, 0.3417763113975525, 0.1683376580476761, -0.21607989072799683, -0.09738633036613464, 0.3304227292537689, -0.21573518216609955, 0.2207196056842804, 0.20396451652050018, 0.1485418677330017, -0.21224406361579895, -0.7808187007904053, 0.1512092500925064, -0.7971053719520569, 0.08701510727405548, 0.47514840960502625, 0.02319040335714817, 0.34023553133010864, 0.36628255248069763, -0.14745250344276428], [0.25928598642349243, 0.23409387469291687, 0.14206063747406006, -0.41705015301704407, 0.27024030685424805, 0.40946120023727417, 0.3989141583442688, 0.00772158894687891, -0.17570139467716217, 0.14898543059825897, 0.4128386974334717, 0.14228078722953796, 0.13815975189208984, 0.35351070761680603, -0.2105253040790558, -0.1551411747932434, 0.38099658489227295, 0.4410553574562073, -2.1602120399475098, 0.11013234406709671, 0.18931393325328827, 0.15875262022018433, 0.0024875083472579718, 0.2457534223794937, -0.10429555177688599, 0.3294498324394226, 0.4288257360458374, 0.30981093645095825, 0.027695750817656517, 0.21814562380313873, 0.096498042345047, 0.07995086908340454, 0.2836063504219055, 0.012260549701750278, -0.051299192011356354, 0.5988368391990662, 0.041649229824543, -0.006527307443320751, 0.37272173166275024, -0.25158628821372986, 0.05573692545294762, -0.051706232130527496, -1.844470500946045, 0.23981083929538727, 0.38815218210220337, 0.37396299839019775, 0.322175532579422, 0.06981681287288666, 0.01315268687903881, -0.47643178701400757, -0.13410751521587372, 0.3201064169406891, 0.4706757068634033, -0.019798332825303078, 0.23472753167152405, 0.23878316581249237, 0.2365153431892395, -2.011204481124878, 0.35444730520248413, 0.25687602162361145, -0.753576397895813, 0.42345842719078064, 0.16116920113563538, -0.07115726917982101], [0.4461906850337982, -0.03198327124118805, 0.3759133219718933, 0.4666714370250702, 0.18264375627040863, 0.35904133319854736, 0.24580428004264832, -0.034184060990810394, 0.012236221693456173, 0.1392587572336197, 0.13156816363334656, -0.31195932626724243, 0.2579219341278076, 0.17706763744354248, 0.16936446726322174, -0.08104413747787476, 0.087179996073246, 0.21324601769447327, -0.587622880935669, 0.1509282886981964, 0.22562915086746216, -0.12394694983959198, 0.061768773943185806, -0.1495298147201538, 0.10600072145462036, 0.0038954075425863266, 0.2459796965122223, 0.24640636146068573, 0.0010190479224547744, 0.04964752495288849, 0.2724219560623169, 0.3238029479980469, 0.04704221338033676, 0.2759976089000702, 0.16475102305412292, 0.2631247937679291, 0.10504776239395142, 0.054630715399980545, 0.31721001863479614, 0.06334658712148666, 0.2468942403793335, 0.06323473900556564, -0.4587920904159546, 0.25325894355773926, 0.14006081223487854, 0.28996542096138, 0.16650165617465973, -0.42440053820610046, 0.2883343994617462, -0.06287714838981628, -0.01933523267507553, 0.05357307940721512, 0.0969650000333786, 0.02068081498146057, 0.2667785882949829, 0.17742156982421875, -0.0742456465959549, -0.44373324513435364, 0.006642171647399664, 0.3348444104194641, 0.30799809098243713, -0.12441709637641907, 0.2575993835926056, -0.09799935668706894], [0.17075812816619873, 0.14348287880420685, 0.29144731163978577, 0.042601119726896286, -0.09708917886018753, 0.12389370054006577, 0.0065427315421402454, -0.035632822662591934, 0.05914939567446709, 0.2674732804298401, -0.08693043142557144, -0.14196480810642242, -0.09435754269361496, 0.23796460032463074, -0.094207763671875, -0.20829612016677856, -0.11612643301486969, 0.31719741225242615, -0.07521217316389084, -0.17700009047985077, 0.04613840579986572, -0.008990872651338577, 0.1333729475736618, -0.052688829600811005, 0.033503830432891846, 0.1405421644449234, 0.0962066799402237, 0.22370176017284393, 0.07681146264076233, -0.1194039061665535, -0.10504289716482162, 0.10052026808261871, -0.12947264313697815, -0.07530024647712708, 0.11222971230745316, -0.9279489517211914, 0.08195392042398453, 0.24743635952472687, -0.3310396373271942, 0.08691425621509552, 0.04776850342750549, -0.26276302337646484, -0.3039902448654175, 0.208757221698761, -0.11356621980667114, -0.022238681092858315, 0.06183174252510071, 0.15522737801074982, -0.15894962847232819, -1.0062520503997803, -0.11404645442962646, 0.06082569435238838, -0.16616612672805786, -0.333391398191452, 0.037505634129047394, -0.3402913510799408, 0.06221676617860794, -0.12350959330797195, -0.07129289209842682, -0.07214027643203735, -0.013104449957609177, 0.2504120171070099, 0.14000502228736877, -0.2641630172729492], [0.11559770256280899, -0.038328517228364944, 0.14157260954380035, 0.49812379479408264, -0.024887027218937874, 0.2932731807231903, 0.012793688103556633, -0.21263016760349274, -0.1789921671152115, -0.06812939047813416, 0.09217827767133713, -0.2599687874317169, -0.009445206262171268, -0.039731450378894806, -0.07645457237958908, -0.05767631530761719, 0.2404899001121521, -0.1216798722743988, 0.18986810743808746, 0.1380290538072586, 0.06445121020078659, 0.16691410541534424, -0.22171305119991302, -0.03939688578248024, -0.059445321559906006, 0.015973318368196487, -0.12069926410913467, 0.06751067191362381, -0.06462571769952774, -0.19807058572769165, -0.13762196898460388, -0.006750152446329594, -0.09002570807933807, 0.22071249783039093, 0.14449100196361542, -1.093244194984436, -0.06648034602403641, -0.19677552580833435, -2.2471325397491455, -0.13875402510166168, 0.2223312258720398, -0.0017080807592719793, 0.07388937473297119, -0.009845280088484287, 0.19161365926265717, 0.18749190866947174, 0.26116424798965454, 0.1723094880580902, 0.09927148371934891, -0.3400382399559021, -0.013025372289121151, 0.12321221828460693, -2.386590003967285, -0.6413760781288147, 0.2976633310317993, 0.22626052796840668, 0.28892743587493896, 0.40353336930274963, -0.08904663473367691, -2.5639870166778564, 0.30589139461517334, -0.033218998461961746, -0.17450681328773499, 0.03559671342372894], [0.14579129219055176, -0.11349956691265106, 0.02125493623316288, 0.4010053873062134, 0.17274166643619537, 0.21547965705394745, 0.21148966252803802, 0.3370368778705597, 0.023865869268774986, -0.0116006750613451, 0.23986203968524933, -0.049393441528081894, -0.21042247116565704, 0.3422543406486511, -0.12295106053352356, -0.11374759674072266, -0.010287328623235226, -0.09457005560398102, -0.5518807172775269, 0.16689710319042206, -0.036561500281095505, 0.1338503062725067, 0.09068599343299866, 0.14069487154483795, -0.24549514055252075, 0.22373950481414795, 0.1331801414489746, 0.21132682263851166, -0.28565940260887146, -0.07023805379867554, 0.14445257186889648, 0.3011343777179718, 0.039356548339128494, 0.0535963773727417, 0.20242704451084137, 0.33280491828918457, 0.10008005052804947, -0.04194052889943123, -0.01507936604321003, -0.10594687610864639, 0.04352780431509018, 0.12426281720399857, -0.4378504455089569, 0.11522151529788971, 0.1912933886051178, 0.24269592761993408, 0.02257993258535862, -0.27147042751312256, 0.09777037799358368, 0.07636068016290665, 0.04774170741438866, 0.17776820063591003, 0.17085692286491394, -0.006842893082648516, -0.1423516571521759, 0.41835179924964905, 0.33609268069267273, -0.7919005155563354, 0.0030056273099035025, -0.08421791344881058, -0.013878030702471733, -0.09720782935619354, -0.053787488490343094, -0.46978527307510376], [0.10867980867624283, -0.03283163905143738, -0.017565954476594925, 0.0772181823849678, -0.005540607962757349, 0.022945165634155273, 0.28290557861328125, 0.2405022382736206, -0.25302693247795105, 0.280265748500824, 0.19810523092746735, -0.18093499541282654, 0.05931505188345909, 0.07256501168012619, -0.11310052126646042, -0.15939414501190186, 0.08981013298034668, -0.040217239409685135, -0.8181218504905701, 0.1101977527141571, 0.07725014537572861, -0.14827163517475128, -0.17784464359283447, 0.170124813914299, 0.025773346424102783, 0.09741078317165375, 0.24446295201778412, 0.17661744356155396, -0.0033202017657458782, 0.20678456127643585, 0.14334140717983246, 0.17278559505939484, 0.10561966896057129, 0.2729272246360779, -0.1681593358516693, 0.34771183133125305, -0.04826043173670769, 0.0002464820572640747, 0.33532214164733887, -0.39056462049484253, -0.14060640335083008, -0.07832197099924088, -1.274649977684021, 0.2637411057949066, 0.2279333472251892, 0.049440648406744, 0.28756898641586304, -0.29377394914627075, 0.016334565356373787, 0.255219429731369, -0.00035252634552307427, 0.14062397181987762, 0.32582464814186096, 0.13333044946193695, 0.057208165526390076, 0.003353866282850504, 0.11752026528120041, -1.3451151847839355, -0.06720588356256485, 0.15337778627872467, -0.2066631019115448, -0.16508691012859344, 0.20972587168216705, -0.4156755208969116], [0.5894515514373779, -0.056067660450935364, 0.16577763855457306, 0.3526327908039093, 0.0072801136411726475, 0.2080565094947815, 0.3824143409729004, 0.13513600826263428, -0.2541026771068573, 0.06916838139295578, 0.1575196534395218, -0.19646495580673218, -0.11648476123809814, 0.13375559449195862, -0.17989255487918854, 0.031295180320739746, 0.16557204723358154, 0.20736706256866455, 0.11951087415218353, 0.2695973813533783, 0.1544625163078308, -0.013822629116475582, -0.1734991818666458, 0.3414587378501892, 0.1462538242340088, -0.08908790349960327, 0.08220633864402771, 0.18389740586280823, -0.22477692365646362, 0.28925615549087524, 0.05192564055323601, -0.027012264356017113, 0.1744757443666458, 0.0295413788408041, -0.12109097093343735, 0.3997020423412323, 0.24184341728687286, 0.09318707883358002, 0.07027055323123932, -0.25620734691619873, -0.21918213367462158, -0.034438274800777435, -0.033910393714904785, -0.15225909650325775, -0.09756211936473846, 0.25421422719955444, -0.0913940966129303, -0.44625794887542725, 0.14642216265201569, 0.3749208152294159, 0.07222187519073486, -0.011174292303621769, 0.2374383807182312, -0.2522108554840088, -0.6129445433616638, -1.4495805501937866, 0.19984787702560425, -0.1241568997502327, 0.014859745278954506, -0.04328209161758423, 0.12939614057540894, -0.05095146968960762, 0.3224528729915619, -0.009448421187698841], [0.3268054127693176, 0.4837671220302582, 0.07802063226699829, 0.2018655687570572, 0.16205565631389618, 0.43649202585220337, 0.12020544707775116, 0.31218770146369934, -0.24649053812026978, 0.2254415601491928, 0.21714147925376892, 0.12433423846960068, -0.049041759222745895, 0.33786532282829285, -0.27250292897224426, -0.24374240636825562, 0.3977016508579254, 0.22164706885814667, -0.9969725012779236, 0.14817920327186584, 0.16890406608581543, -0.14908535778522491, 0.30224713683128357, 0.10537651926279068, -0.2123529314994812, 0.08178529888391495, 0.16622188687324524, 0.29543501138687134, 0.05152290314435959, -0.019653290510177612, 0.2140900045633316, 0.41059619188308716, 0.33102697134017944, 0.4351396858692169, 0.3165944814682007, 0.21162058413028717, 0.05216550827026367, 0.08309654146432877, -0.012419297359883785, -0.2532675862312317, -0.06982369720935822, -0.4189023971557617, -0.6198577284812927, 0.4919748902320862, 0.38450756669044495, 0.4148120582103729, 0.08317657560110092, 0.25647202134132385, 0.38009634613990784, -0.7678260207176208, 0.18910187482833862, 0.21552494168281555, 0.18697179853916168, 0.1812513768672943, 0.02832389622926712, 0.22177092730998993, 0.3886224329471588, -0.9377758502960205, 0.3410928249359131, 0.23975032567977905, -0.27122175693511963, 0.30227768421173096, 0.1439942866563797, -0.2173304557800293], [-2.6671767234802246, -0.4435749053955078, -0.5800533294677734, 0.4109553396701813, -0.703219473361969, -0.927375078201294, -4.2272233963012695, -1.0294109582901, -0.049247484654188156, -0.6257169246673584, -0.6640256643295288, 0.16199302673339844, -1.5928984880447388, -0.5632467269897461, 0.20637637376785278, 0.06733250617980957, -0.9053753614425659, -0.8377931118011475, 0.7966696619987488, -0.5715309381484985, -0.20826886594295502, -0.2000337392091751, -1.0016140937805176, -0.3844231069087982, -0.2349950075149536, -0.5368563532829285, -0.3961138129234314, -0.7737665176391602, -0.047976054251194, -0.7910125255584717, -0.5357294678688049, -0.8390406370162964, -1.1700531244277954, -0.7024316787719727, -0.9460163712501526, -0.5346169471740723, -0.5938007235527039, -0.8311553001403809, 0.22231288254261017, 0.1816507875919342, -0.5617770552635193, 0.8400376439094543, 1.280234694480896, -0.5867360830307007, -0.7213210463523865, -0.9033747315406799, -0.42693862318992615, 0.07855262607336044, -0.5736456513404846, 0.08519134670495987, -0.1861182451248169, -0.44806602597236633, 0.10904467105865479, -0.2505747377872467, -0.5934965014457703, 0.6187294125556946, -0.8913825750350952, 0.9757540822029114, -0.5429201126098633, 0.37047094106674194, 0.3668879568576813, -0.5149990916252136, -0.6013427376747131, -0.20774510502815247], [0.30899912118911743, -0.4387308657169342, -0.0826481282711029, -0.9624946713447571, -0.09909382462501526, -0.39712435007095337, 0.19774244725704193, -0.3959461450576782, -0.24551980197429657, -0.47700604796409607, -0.3509691655635834, -0.10768838971853256, -0.3966895639896393, -0.28264811635017395, 0.07041408121585846, -0.1466280221939087, -0.19867649674415588, -0.4340687692165375, -0.7392261624336243, -0.35217994451522827, -0.13771982491016388, 0.023505615070462227, -0.2858336865901947, -0.1613018810749054, -0.12169557809829712, -0.29222747683525085, 0.1692505031824112, -0.356504887342453, -0.23742765188217163, -0.11024846881628036, -0.19330382347106934, -0.26355746388435364, -0.36062923073768616, -0.4036886990070343, -0.39846521615982056, 0.27917900681495667, -0.0951017215847969, -0.07438173145055771, 0.5385341048240662, -0.19678884744644165, -0.18551845848560333, 0.13660359382629395, -0.7877185344696045, -0.13450610637664795, -0.3450893759727478, -0.4433406889438629, -0.2367296814918518, -1.0871737003326416, -0.1539774388074875, 0.642431378364563, -0.00644572451710701, -0.1565067321062088, 0.7318137884140015, -0.14945079386234283, -0.7570681571960449, -0.003310646628960967, -0.276217520236969, -0.8503465056419373, -0.1383829265832901, 0.7765159606933594, -0.737810492515564, -0.1982213407754898, -0.12843646109104156, 0.13588672876358032], [-0.030597997829318047, -0.004653170704841614, -0.04312439635396004, 0.14832517504692078, -0.15811915695667267, -0.14170673489570618, 0.31588518619537354, -0.2275959551334381, -0.15793181955814362, -0.22928990423679352, 0.26009559631347656, -0.2569795548915863, 0.06214848533272743, -0.07625974714756012, -0.11326169967651367, 0.006905257701873779, -0.0892503559589386, 0.03318881243467331, 0.37154436111450195, -0.01290980540215969, 0.10459303110837936, -0.16541922092437744, 0.13208205997943878, 0.25652414560317993, 0.2227863073348999, 0.03819021210074425, 0.2413436323404312, 0.2824890613555908, -0.17620143294334412, -0.1692722737789154, -0.18789026141166687, 0.11662819981575012, -0.16726170480251312, 0.06581024080514908, 0.164728581905365, 0.044424500316381454, 0.06736531853675842, -0.16214576363563538, 0.2653142809867859, -0.13868287205696106, 0.0681411549448967, 0.20522022247314453, 0.36265021562576294, 0.04213393107056618, 0.17146538197994232, 0.21919479966163635, -0.0476563461124897, 0.3847304582595825, -0.03891090676188469, -1.0229170322418213, -0.14944684505462646, 0.20943041145801544, -0.30180948972702026, -0.12179429084062576, 0.1227862536907196, -0.041562020778656006, -0.028118135407567024, 0.4374815821647644, -0.10403314232826233, -0.6033462882041931, 0.423047810792923, 0.3054921329021454, 0.1610204428434372, 0.14923538267612457], [0.7385996580123901, -0.6460514068603516, -0.6139503717422485, -6.562030792236328, -0.5642591118812561, -0.6233040690422058, 0.7110041379928589, -0.1863725483417511, 0.06412917375564575, -0.461293488740921, -0.2791137397289276, 0.11795651167631149, -0.6461578607559204, -0.4680326282978058, -0.2640349864959717, 0.0020939111709594727, -0.5540287494659424, -0.3824363350868225, 0.15174582600593567, -0.4294373095035553, -0.4623410403728485, -0.2206309288740158, -0.7455458641052246, -0.3251396417617798, 0.23278552293777466, -1.3459218740463257, -0.45883116126060486, -0.5549768209457397, 0.14102528989315033, -0.8521045446395874, -0.48603078722953796, -0.7494750022888184, -0.5170833468437195, -0.6799325346946716, -0.5888786911964417, 0.036176275461912155, -0.5656754970550537, -0.2059784084558487, 0.6460457444190979, 0.0832003727555275, -0.2611241638660431, 0.6312673687934875, -0.5169203281402588, -0.6840292811393738, -0.17021144926548004, -0.4903641939163208, -0.6761494874954224, 0.21767988801002502, -0.5713053345680237, 0.7360783815383911, -0.22886696457862854, -0.6110643148422241, 1.0742743015289307, 0.388042688369751, -0.06880353391170502, 0.24600930511951447, -0.48593297600746155, -0.3923734426498413, -0.2604684829711914, 0.8571295142173767, -1.1548229455947876, -0.5844840407371521, -0.5651850700378418, 0.047900304198265076], [-0.23876121640205383, -0.0099008958786726, -0.00899627897888422, 0.14639848470687866, -0.08760051429271698, 0.07009296864271164, -0.11469626426696777, 0.2313542366027832, -0.036635059863328934, 0.30628737807273865, -0.06894977390766144, -0.22618012130260468, -0.15422838926315308, 0.13382452726364136, -0.048311829566955566, -0.2206505537033081, -0.14201131463050842, 0.1558672934770584, 0.4145638048648834, 0.11087666451931, -0.12601612508296967, -0.12964744865894318, 0.07179352641105652, 0.19915544986724854, -0.22070878744125366, -0.10845281183719635, 0.12265031039714813, 0.14949384331703186, 0.1216040849685669, 0.29904550313949585, 0.18209393322467804, 0.1480969786643982, 0.11601605266332626, 0.2734084129333496, 0.20365408062934875, -1.7985668182373047, -0.16256029903888702, -0.19642037153244019, -1.638108491897583, -0.04494122788310051, 0.22181424498558044, -0.011211988516151905, 0.2596418857574463, 0.015797678381204605, 0.053447846323251724, 0.29190772771835327, -0.08484842628240585, -0.14342960715293884, 0.2005171775817871, -0.18917572498321533, -0.274517685174942, 0.2543679475784302, -1.992518424987793, -0.7655079364776611, -0.09500059485435486, 0.11333457380533218, 0.13038475811481476, 0.16214680671691895, -0.07204748690128326, -1.8746980428695679, 0.4017932116985321, 0.02127862721681595, 0.03342794254422188, -0.24422240257263184], [0.506712794303894, -0.33101850748062134, -0.24819880723953247, -0.5492793321609497, -0.12495660036802292, -0.3054853081703186, -0.004609295167028904, -0.10001692175865173, -0.08752267062664032, -0.17808768153190613, -0.4424278140068054, 0.1241239681839943, -0.1638452261686325, -0.40500715374946594, 0.16946274042129517, -0.1477864384651184, -0.3012545704841614, -0.13051621615886688, 0.3306402564048767, -0.07420898228883743, 0.13195142149925232, 0.10628966987133026, -0.4954882562160492, -0.201551154255867, 0.12462890148162842, -0.04294716194272041, 0.1636832058429718, -0.04119808226823807, -0.0893043801188469, -0.5336638689041138, -0.08762221038341522, -0.21095021069049835, -0.5363714098930359, -0.2658349275588989, -0.06407114118337631, -1.7299708127975464, -0.11806361377239227, -0.20840607583522797, 0.4320443570613861, 0.18980112671852112, 0.04376519098877907, 0.15250511467456818, 0.44683995842933655, -0.2736679017543793, -0.3589446544647217, -0.34957820177078247, -0.30691757798194885, 0.2893799841403961, 0.020029859617352486, -0.14157947897911072, -0.16141074895858765, -0.2327803671360016, 0.8186772465705872, 0.5845487117767334, 0.19538871943950653, 0.01692097634077072, -0.2687782645225525, 0.30546391010284424, 0.007866229861974716, 1.0088881254196167, -0.7497485876083374, -0.17468330264091492, -0.06169930100440979, -0.20483183860778809], [-0.2201971858739853, 0.10890047252178192, 0.17477883398532867, 0.43924057483673096, 0.3644040524959564, 0.2524472177028656, -0.08493565768003464, 0.1438533067703247, -0.12674252688884735, 0.3746887743473053, 0.1561676561832428, -0.2032141536474228, 0.23877522349357605, -0.0008197759743779898, -0.26841485500335693, 0.010920345783233643, 0.34764400124549866, 0.12191992253065109, 0.41930055618286133, 0.2997206449508667, 0.10709518939256668, -0.22831065952777863, 0.17495931684970856, 0.013183938339352608, -0.03964179754257202, 0.3706153631210327, 0.42011091113090515, 0.3482132852077484, 0.18103112280368805, 0.2613486349582672, 0.014668661169707775, 0.0016463093925267458, -0.06567136198282242, 0.25883638858795166, 0.02390320599079132, -0.4274123013019562, 0.3446061313152313, 0.20725117623806, -0.24162514507770538, -0.05312971770763397, 0.10845834761857986, 0.021447723731398582, 0.20135235786437988, 0.1788042187690735, 0.0918632447719574, 0.02464863657951355, 0.3914194107055664, -0.0344105139374733, 0.029594073072075844, -0.5008162260055542, 0.18008387088775635, 0.18581272661685944, -0.968677282333374, -0.2652398645877838, 0.21608513593673706, -0.21739760041236877, -0.04702245071530342, -0.018470006063580513, 0.37771835923194885, -0.8582534790039062, 0.1830074042081833, 0.41196101903915405, 0.40350794792175293, -0.15290775895118713], [0.5961154103279114, 0.3620254099369049, 0.07789665460586548, -0.1783805638551712, 0.223149374127388, -0.08099639415740967, 0.698128879070282, 0.09806542843580246, 0.06717678904533386, 0.12850457429885864, -0.008624698966741562, -0.09707504510879517, -0.09119042754173279, 0.33526116609573364, -0.2267836630344391, -0.18377894163131714, -0.028864916414022446, 0.2063850462436676, -0.7251431941986084, 0.2401004582643509, -0.06354407966136932, -0.22299377620220184, -0.06565102189779282, -0.03809588775038719, -0.1584329605102539, 0.10494621098041534, -0.0729663297533989, -0.04862968996167183, 0.07142138481140137, 0.3058638870716095, 0.3201082646846771, 0.3518524169921875, -0.10758619755506516, 0.2914920449256897, -0.14769060909748077, 0.6089686751365662, -0.0362657867372036, -0.21142970025539398, 0.6332697868347168, -0.05596572160720825, -0.03332636132836342, -0.13554584980010986, -0.5765216946601868, 0.1201411634683609, -0.0697426050901413, 0.2094409018754959, 0.027506355196237564, 0.1851446032524109, 0.15474578738212585, -0.15601058304309845, -0.19927126169204712, 0.017019100487232208, 0.44950973987579346, 0.3904207944869995, 0.1290169656276703, 0.06834469735622406, 0.2755658030509949, -1.2468985319137573, -0.0951448604464531, 0.7284892201423645, -0.6141003966331482, 0.18852083384990692, 0.2956283986568451, 0.11662957817316055], [-0.2101743072271347, 0.06343341618776321, 0.11336255073547363, 0.07319401204586029, 0.2459179013967514, -0.059826452285051346, 0.015121228992938995, -0.02701147273182869, -0.0709444060921669, -0.0800209492444992, 0.08715490251779556, 0.06987353414297104, -0.011686539277434349, 0.2736622095108032, 0.14224272966384888, -0.2389470338821411, 0.10727738589048386, 0.1840556561946869, 0.4053258001804352, 0.18267221748828888, -0.08953848481178284, -0.2327587604522705, 0.08264904469251633, 0.24095307290554047, -0.09525823593139648, 0.03474894538521767, 0.1485883891582489, 0.07384318858385086, -0.09615423530340195, 0.16989009082317352, 0.20963436365127563, 0.1944878101348877, -0.10782252997159958, -0.04338943585753441, 0.2752376198768616, -1.3685486316680908, 0.3457619845867157, 0.3174113631248474, -1.8133007287979126, 0.20063233375549316, -0.11706505715847015, -0.15759627521038055, 0.4177771508693695, 0.20861142873764038, 0.34365031123161316, -0.041685909032821655, 0.3342805504798889, 0.031139733269810677, 0.0502801313996315, -0.04930271953344345, 0.05983870103955269, 0.01245009247213602, -2.261131525039673, -0.675636351108551, -0.2575513422489166, -0.06270961463451385, 0.15362682938575745, 0.38491198420524597, -0.017900675535202026, -2.032054901123047, 0.2923443913459778, 0.006156762130558491, 0.01912764087319374, 0.08316312730312347], [-1.1776803731918335, -0.12196950614452362, -0.2574479877948761, -0.46282973885536194, -0.0007674157386645675, -0.12943504750728607, -1.1546432971954346, -0.4245907962322235, -0.1034613698720932, 0.08668523281812668, -0.283824622631073, 0.023139849305152893, -0.24103905260562897, -0.3573528230190277, -0.10383263975381851, -0.09007585048675537, -0.16887520253658295, -0.17547762393951416, 0.87671959400177, -0.40194016695022583, -0.2713756859302521, -0.2447216510772705, -0.014379430562257767, -0.3555283844470978, -0.16880744695663452, -0.11847808212041855, -0.13820776343345642, -0.3519248366355896, 0.05607416108250618, -0.3933500647544861, -0.45587509870529175, -0.34540247917175293, -0.2076113522052765, 0.07519851624965668, -0.20636491477489471, -1.071150541305542, -0.4976939260959625, 0.4050680994987488, 0.06116732209920883, 0.15711700916290283, -0.1632949262857437, 0.3936425745487213, 0.821144163608551, 0.13053689897060394, -0.08598888665437698, 0.08793169260025024, -0.348621666431427, 0.27349814772605896, -0.033580679446458817, 0.21742254495620728, -0.12637688219547272, -0.02464176155626774, 0.027677815407514572, -0.1514504998922348, 0.08994913846254349, 0.0542202852666378, 0.004820505157113075, 0.9784743189811707, -0.2791903614997864, -0.09714669734239578, 0.22102278470993042, -0.10274216532707214, -0.5295554995536804, -0.03795504570007324], [0.023360276594758034, -0.005301857367157936, -0.098439522087574, -0.052280958741903305, -0.08870413899421692, 0.11861222982406616, 0.19117316603660583, -0.04335235804319382, -0.0011540394043549895, 0.01765136979520321, 0.05467723309993744, -0.02783304639160633, -0.1928352415561676, -0.09411629289388657, 0.1787213683128357, -0.07535499334335327, 0.014683566056191921, 0.17941123247146606, -0.18309199810028076, 0.121565081179142, -0.08022043108940125, -0.08443043380975723, -0.20760731399059296, 0.26198139786720276, -0.1907222867012024, -0.27176380157470703, 0.06693911552429199, 0.2667850852012634, -0.15658777952194214, 0.09204539656639099, 0.03072579950094223, 0.22897133231163025, 0.04751863703131676, 0.18414847552776337, 0.11292649060487747, -0.21405518054962158, -0.1259346455335617, 0.21263094246387482, 0.10709250718355179, -0.0327766016125679, -0.0655340701341629, -0.3553943634033203, -0.9116044640541077, -0.09816917032003403, 0.22066953778266907, -0.1186533197760582, -0.12533876299858093, -0.22981877624988556, -0.14892791211605072, -0.19558826088905334, -0.3590506911277771, 0.026890456676483154, 0.2581217288970947, -0.12794803082942963, -0.11454493552446365, 0.10070274770259857, -0.14484260976314545, -0.3966679871082306, 0.10478650033473969, 0.2829006314277649, -0.050091009587049484, 0.1575424075126648, 0.023999903351068497, -0.33270275592803955], [0.37486350536346436, 0.34652179479599, -0.09912683069705963, 0.3652791678905487, 0.3086751401424408, 0.04312180355191231, 0.24669143557548523, -0.01674819551408291, -0.28510135412216187, 0.05702442675828934, 0.3279595673084259, 0.020425565540790558, -0.006940650753676891, -0.1243411973118782, -0.18538330495357513, -0.06160557270050049, 0.2908380329608917, 0.15575087070465088, -0.43288639187812805, -0.11139930039644241, -0.11694056540727615, -0.0029424335807561874, -0.09880722314119339, -0.18091528117656708, -0.064261794090271, 0.15620890259742737, -0.052793946117162704, 0.03178692236542702, -0.22471757233142853, -0.016087720170617104, -0.040569499135017395, 0.3292146921157837, 0.12338531017303467, 0.2132154256105423, 0.2263040691614151, 0.24576081335544586, 0.29881057143211365, 0.2498113214969635, 0.38671252131462097, -0.05749603360891342, 0.28122493624687195, 0.09243880957365036, -0.6400331854820251, -0.013161834329366684, -0.02619655430316925, -0.09220816940069199, 0.001927949720993638, -0.36603233218193054, 0.18532155454158783, -0.14039570093154907, -0.15808548033237457, 0.27196642756462097, 0.24383190274238586, -0.17265382409095764, 0.10497429221868515, -0.13933490216732025, 0.13641665875911713, -0.3525061011314392, 0.13665376603603363, 0.3757937550544739, 0.12207987159490585, 0.132930725812912, 0.24862784147262573, -0.08093954622745514], [0.014324640855193138, 0.01940039172768593, 0.2062598615884781, 0.15384384989738464, 0.4146508276462555, 0.014773041941225529, 0.06593739986419678, 0.3864118456840515, 0.05928954854607582, 0.2139674425125122, -0.04960081726312637, -0.10266470164060593, 0.23488804697990417, 0.38620635867118835, 0.04817338287830353, 0.18448328971862793, 0.26836082339286804, 0.09194780141115189, 0.507273256778717, 0.09808451682329178, 0.12513378262519836, -0.010909724049270153, 0.33726027607917786, -0.020062066614627838, 0.05758267641067505, 0.27137625217437744, 0.21447743475437164, 0.05201026797294617, -0.1514855921268463, 0.30785852670669556, 0.1585882157087326, 0.37033820152282715, 0.20639187097549438, 0.19694525003433228, 0.22979597747325897, -0.23313049972057343, -0.026205068454146385, 0.17772901058197021, -0.2835649847984314, 0.20370228588581085, -0.020161369815468788, -0.12103408575057983, 0.3354441225528717, 0.17177240550518036, -0.018139293417334557, -0.05057673901319504, 0.35514235496520996, -0.04717748612165451, 0.24290351569652557, -0.34981170296669006, 0.013273831456899643, 0.17337623238563538, -0.7754024863243103, -0.24616311490535736, -0.2820252776145935, -0.23841343820095062, 0.2338392585515976, 0.19387970864772797, 0.04577067121863365, -1.0050395727157593, 0.030572757124900818, -0.014646544121205807, 0.07918600738048553, -0.10301992297172546], [-0.06086927652359009, -0.0896105244755745, 0.22305522859096527, 0.058246511965990067, 0.3458975851535797, 0.07386796176433563, 0.023862946778535843, 0.1611238420009613, 0.005736032035201788, 0.004681717604398727, -0.06911718100309372, 0.11295602470636368, 0.00026031374000012875, 0.14748279750347137, 0.16241055727005005, 0.053771793842315674, 0.15483935177326202, 0.02895864099264145, 0.34865447878837585, 0.2796325981616974, 0.01006269920617342, 0.05511770769953728, 0.25548750162124634, -0.0654856339097023, 0.10879814624786377, -0.1935863196849823, 0.0130781140178442, -0.04365481436252594, 0.04159842059016228, 0.21321888267993927, 0.014563305303454399, -0.07352388650178909, -0.0989377573132515, 0.17950581014156342, -0.06628017127513885, -0.6796279549598694, 0.4145609140396118, -0.1221645250916481, -0.9740496277809143, -0.09042035043239594, 0.12042755633592606, -0.3520869016647339, -0.064481720328331, 0.39033064246177673, 0.022382384166121483, 0.2108248472213745, 0.20014429092407227, -0.11012939363718033, -0.09113182872533798, -0.647491455078125, -0.2643607556819916, 0.24837660789489746, -0.6658321619033813, -0.15173204243183136, 0.25508955121040344, -0.17185109853744507, 0.04767945781350136, 0.4711177945137024, -0.10121950507164001, -0.8951820135116577, 0.4358489513397217, 0.18763203918933868, -0.10791421681642532, -0.12086576968431473], [0.7169434428215027, 0.0752033144235611, 0.23033367097377777, 0.2322015017271042, 0.13674984872341156, 0.3733225166797638, 0.28715428709983826, 0.10091104358434677, -0.16414332389831543, -0.12221590429544449, 0.2280581295490265, 0.11951571702957153, 0.28283119201660156, 0.26787757873535156, -0.019053511321544647, 0.14415353536605835, 0.25473883748054504, 0.3180762827396393, -0.23866474628448486, 0.28287652134895325, -0.15626844763755798, -0.17905357480049133, 0.12949061393737793, 0.06475638598203659, -0.09928959608078003, 0.1137118935585022, -0.039246730506420135, -0.13150343298912048, -0.1086382046341896, 0.1338120996952057, -0.037513699382543564, -0.028378551825881004, -0.011311855167150497, 0.16573110222816467, 0.07756825536489487, -0.22566351294517517, -0.03709122911095619, 0.29254698753356934, -0.2526281177997589, -0.18960200250148773, 0.12008395045995712, 0.27326279878616333, -0.4670417606830597, -0.113074891269207, 0.06819311529397964, -0.04315872862935066, 0.03030233457684517, -0.8889737129211426, -0.08674892783164978, 0.19435419142246246, -0.19874730706214905, 0.15966136753559113, -0.33528533577919006, -0.8053643703460693, -0.4145967364311218, -0.884857714176178, 0.048350606113672256, -0.15134362876415253, 0.31242668628692627, 0.13633422553539276, -0.0024137620348483324, -0.18208883702754974, -0.05324693024158478, 0.11520495265722275], [0.077302947640419, 0.13075979053974152, 0.17148928344249725, 0.6283203959465027, 0.2652741074562073, -0.11748992651700974, 0.21506580710411072, -0.14335624873638153, -0.02359587885439396, 0.15913675725460052, 0.2839057445526123, 0.035232897847890854, -0.25919127464294434, 0.11038320511579514, -0.03282805159687996, -0.14876681566238403, 0.1565483957529068, -0.04366764426231384, 0.022922489792108536, 0.0913071259856224, 0.264824777841568, 0.16400237381458282, 0.13420812785625458, -0.043126173317432404, 0.2103237509727478, -0.16065673530101776, -0.03159802779555321, 0.02826334722340107, -0.13759830594062805, 0.17222614586353302, -0.18172487616539001, -0.08010504394769669, -0.05505197122693062, 0.1777491420507431, 0.2590610086917877, -0.4130278527736664, -0.11634544283151627, -0.2183382213115692, -1.307121753692627, -0.10709904879331589, 0.19565461575984955, -0.1306728720664978, 0.19258344173431396, 0.30377334356307983, 0.13770413398742676, 0.23853851854801178, 0.15099601447582245, 0.1611013412475586, 0.3064405918121338, -0.602840006351471, 0.13706441223621368, -0.02105001173913479, -1.4373735189437866, -0.5271300077438354, 0.5883725881576538, 0.2972607910633087, 0.1664566695690155, 0.13501359522342682, -0.07654263824224472, -1.525326132774353, 0.009346304461359978, 0.1909094899892807, -0.0986127108335495, -0.015292128548026085], [0.11912278085947037, 0.1623702049255371, 0.18745611608028412, 0.3545624315738678, 0.030031640082597733, -0.0533313974738121, -0.07123047113418579, -0.15410365164279938, -0.25419721007347107, 0.1521870344877243, 0.10205263644456863, -0.1116277351975441, 0.22105854749679565, -0.016562556847929955, -0.1535247266292572, 0.19174575805664062, -0.07817080616950989, 0.26762205362319946, 0.7313233613967896, -0.150967538356781, -0.1641494184732437, -0.012062480673193932, 0.2402697056531906, 0.04074474051594734, -0.14114117622375488, -0.05676785111427307, 0.04720618203282356, -0.16137929260730743, -0.039951082319021225, -0.13143593072891235, 0.015932580456137657, -0.08692407608032227, -0.11688907444477081, -0.15516285598278046, 0.10183613002300262, 0.028933169320225716, -0.06810200214385986, -0.19403891265392303, -0.31562453508377075, -0.2389959841966629, 0.2449321299791336, 0.09556514024734497, 0.4730856418609619, -0.1158451959490776, 0.307682603597641, -0.1331607550382614, 0.14186617732048035, 0.2439083307981491, 0.07351795583963394, -0.629744291305542, 0.20774999260902405, 0.09128692001104355, -0.3096467852592468, -0.40608400106430054, 0.21390748023986816, -0.13249361515045166, -0.136513814330101, 0.565757155418396, 0.1332855522632599, -0.23834893107414246, 0.5191546678543091, -0.22650770843029022, -0.19850769639015198, -0.05046926066279411], [-1.6529953479766846, -0.32246842980384827, -0.23969700932502747, -0.3805531859397888, -0.3170792758464813, -0.1307019293308258, -1.5913219451904297, -0.30544328689575195, 0.12282982468605042, -0.22280599176883698, -0.11983885616064072, 0.14228302240371704, -0.21905989944934845, -0.3803216516971588, 0.14048779010772705, -0.12160718441009521, -0.27406045794487, -0.15811800956726074, 0.36942851543426514, -0.2762811481952667, -0.7205041646957397, -0.12984628975391388, -0.2086418867111206, -0.501413106918335, -0.1718209981918335, -0.3846804201602936, -0.5072181224822998, -0.003310795873403549, 0.14196614921092987, -0.0317600779235363, -0.6310036182403564, -0.45440611243247986, -0.49229171872138977, -0.34003621339797974, -0.09443096816539764, -1.9276353120803833, -0.14151152968406677, 0.0233917273581028, 0.1895512342453003, 0.008202362805604935, -0.08144662529230118, 0.40967562794685364, 0.8058037757873535, -0.18640241026878357, 0.14774088561534882, 0.09779875725507736, -0.19473659992218018, -0.4368511736392975, -0.1834491789340973, 0.5494572520256042, -0.10412921756505966, -0.3299371302127838, -0.11462021619081497, -0.0773785263299942, -1.0939960479736328, -0.36003610491752625, -0.22748804092407227, 0.5355038046836853, -0.5048314332962036, 0.2501799762248993, 0.15532644093036652, -0.25346845388412476, -0.212422713637352, -0.3452284336090088], [0.25487491488456726, 0.08824025094509125, 0.07515750825405121, 0.1700233519077301, 0.3341962993144989, 0.05830170959234238, 0.4338419735431671, 0.2710753083229065, -0.12550798058509827, 0.21153724193572998, 0.028546232730150223, -0.03524508327245712, 0.34729501605033875, 0.18423838913440704, -0.2751506567001343, -0.012384355068206787, 0.07523402571678162, 0.1433379203081131, -0.10258466005325317, 0.2521577775478363, 0.07967012375593185, -0.07926414906978607, 0.2748309075832367, 0.08769753575325012, 0.043855905532836914, 0.08909518271684647, 0.29050785303115845, 0.3327270448207855, -0.022083133459091187, 0.4604816436767578, -0.02105105109512806, 0.06967579573392868, 0.22091250121593475, 0.26767149567604065, 0.19072990119457245, 0.1482672542333603, 0.3760366439819336, 0.14805744588375092, 0.19425098598003387, -0.11040863394737244, -0.008828344754874706, -0.2703709900379181, -0.3162093460559845, 0.31205877661705017, 0.4037074148654938, 0.19803518056869507, 0.1598556637763977, -0.9522209167480469, 0.3903905749320984, 0.12700718641281128, -0.2757585346698761, 0.34876254200935364, -0.13009688258171082, -0.11919939517974854, 0.15251484513282776, 0.02015908621251583, 0.05884353071451187, -0.17107431590557098, 0.04380136355757713, -0.2631201148033142, 0.26350679993629456, 0.04413604736328125, 0.06839451193809509, 0.0940757617354393], [0.36643511056900024, 0.06510797142982483, 0.012474720366299152, 0.1563083976507187, 0.24379058182239532, -0.07797383517026901, 0.4618469476699829, 0.07313618063926697, -0.059257473796606064, -0.1005837693810463, -0.048172999173402786, -0.016496481373906136, -0.11441076546907425, 0.1096462830901146, -0.06882400810718536, -0.14653939008712769, 0.2628440260887146, 0.2954178750514984, 0.046468861401081085, 0.012071658857166767, 0.03922922536730766, -0.1784030646085739, 0.13859669864177704, 0.2720998525619507, -0.10639721155166626, 0.39915335178375244, 0.11995098739862442, -0.010678730905056, -0.20300859212875366, -0.05150025710463524, 0.298528254032135, 0.14791275560855865, 0.08891307562589645, 0.22727558016777039, -0.14901381731033325, 0.261679470539093, 0.0334952250123024, 0.27569201588630676, 0.08303177356719971, 0.22456732392311096, 0.2968084514141083, -0.04935937002301216, -0.06981900334358215, 0.17241010069847107, 0.23290576040744781, -0.11427553743124008, 0.2782786190509796, -1.119295358657837, -0.07973640412092209, 0.18240682780742645, 0.12697955965995789, 0.232321098446846, -0.1125616803765297, 0.024854248389601707, -0.18106116354465485, 0.4163758158683777, 0.07262374460697174, -0.4522888958454132, 0.09293320775032043, -0.17439350485801697, 0.24253930151462555, 0.3602922260761261, 0.3877492845058441, 0.11181619763374329], [0.1010526716709137, 0.2389363795518875, 0.17009486258029938, 0.06389680504798889, -0.0731496587395668, 0.18624091148376465, 0.05076324939727783, 0.21772296726703644, 0.1331452578306198, 0.04721646010875702, 0.020146064460277557, -0.06188539043068886, -0.11557226628065109, -0.036650169640779495, 0.1554688811302185, -0.20230013132095337, 0.06468847393989563, 0.1075812503695488, -0.5410252809524536, -0.05938759073615074, -0.059982750564813614, -0.03453228250145912, 0.27917569875717163, 0.2735908627510071, -0.16910016536712646, -0.15176568925380707, -0.06821567565202713, 0.1722308248281479, -0.18739505112171173, -0.15883320569992065, 0.06738000363111496, 0.18784946203231812, 0.19543148577213287, 0.3029760420322418, 0.12727642059326172, 0.026390234008431435, 0.297217458486557, -0.07375803589820862, 0.07134981453418732, -0.19921866059303284, -0.03851627930998802, 0.018591836094856262, -0.6873453855514526, -0.13267335295677185, 0.27818986773490906, -0.09296707808971405, 0.25435343384742737, -0.1570613980293274, 0.12509353458881378, -0.00625597033649683, -0.023834198713302612, 0.023590611293911934, -0.10862898081541061, 0.014931456185877323, 0.04837391525506973, 0.0345817431807518, -0.08423633873462677, -0.29389166831970215, -0.10577062517404556, 0.003239396959543228, 0.31271639466285706, 0.32558175921440125, 0.14514648914337158, 0.021399125456809998]], "layer2_bias": [0.1816476285457611, 0.29471927881240845, 0.24759870767593384, 0.14224110543727875, 0.2767597436904907, 0.2657967805862427, 0.14362850785255432, 0.2893136143684387, -0.04230488836765289, 0.2634793519973755, 0.23830977082252502, -0.07395004481077194, 0.23766274750232697, 0.2644912302494049, -0.02403045818209648, 0.0, 0.27045774459838867, 0.24289004504680634, 0.09319811314344406, 0.2656499743461609, 0.19882065057754517, -0.023060018196702003, 0.26529839634895325, 0.22974245250225067, 0.0, 0.21891233325004578, 0.22346411645412445, 0.2583325505256653, -0.028944022953510284, 0.2199934870004654, 0.23899219930171967, 0.27227213978767395, 0.2523258924484253, 0.24041366577148438, 0.23119808733463287, 0.16813530027866364, 0.2983027696609497, 0.17562367022037506, 0.0827162116765976, -0.026698322966694832, 0.21147924661636353, -0.24032723903656006, -0.14451861381530762, 0.24228905141353607, 0.219973623752594, 0.24192118644714355, 0.26021671295166016, -0.008653661236166954, 0.19717662036418915, -0.1908220648765564, -0.0654524564743042, 0.22174793481826782, -0.1148327961564064, -0.023061687126755714, -0.02096695825457573, 0.07237567752599716, 0.26479068398475647, -0.10234574228525162, 0.22864164412021637, -0.009865262545645237, 0.12409085780382156, 0.26539096236228943, 0.2812766432762146, -0.013431360945105553], "layer3_weight": [[-0.64406418800354, -0.5510237812995911], [0.46591824293136597, 0.28992322087287903], [0.26709115505218506, 0.44047582149505615], [0.045619480311870575, -0.85124671459198], [0.3848251402378082, 0.3643666207790375], [0.29712700843811035, 0.4468109607696533], [-0.6984162330627441, -0.02126190811395645], [0.28047090768814087, 0.40610718727111816], [-0.1437845528125763, -0.02049129270017147], [0.17447435855865479, 0.23296384513378143], [0.2290440797805786, 0.2861557602882385], [-0.12489356845617294, 0.06757213175296783], [0.170417919754982, 0.4143403172492981], [0.40745267271995544, 0.4295094907283783], [-0.2401263266801834, 0.0063543496653437614], [-0.10080014169216156, 0.223100483417511], [0.2559065520763397, 0.2869780361652374], [0.22512273490428925, 0.4130026400089264], [-0.23828774690628052, -1.610548496246338], [0.27742239832878113, 0.1885857880115509], [0.2730414569377899, 0.008304091170430183], [-0.24015238881111145, 0.319467157125473], [0.2685222327709198, 0.5179516077041626], [0.33115074038505554, 0.0777805969119072], [0.06502547860145569, -0.24543941020965576], [0.23189939558506012, 0.12099634110927582], [0.3547002971172333, 0.043320443481206894], [0.30628055334091187, 0.3677925169467926], [-0.20866036415100098, -0.10411285609006882], [0.4408678114414215, 0.46931684017181396], [0.4020596146583557, 0.11731500178575516], [0.342038094997406, 0.2281896024942398], [0.19051727652549744, 0.3791946470737457], [0.34733742475509644, 0.4474487602710724], [0.15504878759384155, 0.3312341272830963], [-1.4037851095199585, 1.0312285423278809], [0.3806600272655487, 0.3891597092151642], [0.0218755342066288, 0.4278707504272461], [-1.1822301149368286, -0.9052733778953552], [-0.2351263016462326, -0.005794633645564318], [0.09993589669466019, 0.2569340169429779], [-0.31748318672180176, -0.07006531953811646], [-1.913529634475708, 0.11707958579063416], [0.2853275239467621, 0.39776861667633057], [0.19527539610862732, 0.4252684414386749], [0.17905102670192719, 0.30212685465812683], [0.4709192216396332, 0.4163098931312561], [-0.5398941040039062, -0.750438392162323], [0.26156938076019287, 0.07250963896512985], [-1.0216779708862305, -0.4801046848297119], [-0.10156363248825073, -0.08276892453432083], [0.3892018496990204, 0.10546145588159561], [-0.9163967967033386, -1.4102444648742676], [0.3122825026512146, -0.39016690850257874], [-0.25919193029403687, 0.04751379042863846], [-0.18232709169387817, 0.649252712726593], [0.3360779285430908, 0.44347837567329407], [-1.0932177305221558, -0.781196117401123], [0.32575586438179016, 0.04746195301413536], [-0.7693100571632385, -1.30119788646698], [-0.5178197622299194, -0.5622237920761108], [0.4485134482383728, 0.3056904673576355], [0.455607146024704, 0.22459925711154938], [-0.2445758581161499, 0.253599613904953]], "layer3_bias": [0.23896780610084534, 0.2087242305278778]}